{"learner":{"attributes":{"best_iteration":"99","best_ntree_limit":"100","scikit_learn":"{\"use_label_encoder\": null, \"n_estimators\": 100, \"objective\": \"binary:logistic\", \"max_depth\": 8, \"max_leaves\": null, \"max_bin\": null, \"grow_policy\": null, \"learning_rate\": 0.1, \"verbosity\": null, \"booster\": null, \"tree_method\": null, \"gamma\": null, \"min_child_weight\": 1, \"max_delta_step\": null, \"subsample\": null, \"sampling_method\": null, \"colsample_bytree\": 0.5, \"colsample_bylevel\": null, \"colsample_bynode\": null, \"reg_alpha\": 0.25, \"reg_lambda\": 1.2, \"scale_pos_weight\": 5, \"base_score\": null, \"missing\": NaN, \"num_parallel_tree\": null, \"random_state\": 16, \"n_jobs\": null, \"monotone_constraints\": null, \"interaction_constraints\": null, \"importance_type\": null, \"gpu_id\": null, \"validate_parameters\": null, \"predictor\": null, \"enable_categorical\": false, \"feature_types\": null, \"max_cat_to_onehot\": null, \"max_cat_threshold\": null, \"eval_metric\": null, \"early_stopping_rounds\": null, \"callbacks\": null, \"classes_\": [0, 1], \"n_classes_\": 2, \"_estimator_type\": \"classifier\"}"},"feature_names":[],"feature_types":[],"gradient_booster":{"model":{"gbtree_model_param":{"num_parallel_tree":"1","num_trees":"100","size_leaf_vector":"0"},"tree_info":[0,0,0,0,0,0,0,0,0,0,0,0,0,0,0,0,0,0,0,0,0,0,0,0,0,0,0,0,0,0,0,0,0,0,0,0,0,0,0,0,0,0,0,0,0,0,0,0,0,0,0,0,0,0,0,0,0,0,0,0,0,0,0,0,0,0,0,0,0,0,0,0,0,0,0,0,0,0,0,0,0,0,0,0,0,0,0,0,0,0,0,0,0,0,0,0,0,0,0,0],"trees":[{"base_weights":[1.6406952E-1,2.7080306E-1,-1.0910059E-1,3.02612E-1,-8.5820895E-1,-2.0750426E-1,1.0763888E0,3.3450317E-1,-5.45977E-1,-1.5137614E0,9.183673E-1,-9.360878E-2,-9.188034E-1,1.0383889E-1,4.525718E-1,3.3653846E-1,-1.4361702E0,-3.656915E-2,-1.231884E0,-1.5137614E0,-3.0201343E-1,2.4071528E-2,7.861635E-1,7.7968526E-1,3.4713238E-1,9.183673E-1,-6.329114E-2,-1.5931372E-1,4.4407895E-1,-7.1428573E-1,6.481481E-1,8.751903E-2,-4.5731708E-1,3.3653846E-1,1.0759493E0,1.1305361E0,1.8707483E-1,4.385965E-1,-4.91453E-1,-9.183673E-1,6.481481E-1,-2.7015057E-1,8.8235295E-1,8.8235295E-1,1.19617224E-1,-1.7857143E-1,-1.101695E0,-4.240882E-3,7.861635E-1,-8.9928055E-1,9.183673E-1,8.9285713E-1,-7.954545E-1,1.1953727E0,2.34375E-1,-3.110048E-1,1.146789E0,1.4551805E-1,6.2401885E-1,6.481481E-1,-7.598039E-1,-1.5580736E-1,-1.4361702E0,1.2837838E0,7.2463766E-2,-1.798561E-1,5.851064E-1,-1.0185184E0,6.481481E-1,-1.624738E-1,5.8232933E-1,2.293578E-1,1.2837838E0,-1.4903846E0,4.237288E-1,1.2750716E0,2.34375E-1,3.3653846E-1,-8.1395346E-1,-2.8473803E-1,5.743243E-1,6.935216E-1,-3.723404E-1,-1.1206896E0,6.481481E-1,-2.1849594E-1,4.5454544E-1,-7.954545E-1,9.183673E-1,4.2016808E-2,-7.954545E-1],"categories":[],"categories_nodes":[],"categories_segments":[],"categories_sizes":[],"default_left":[1,1,1,1,1,1,0,1,1,0,0,1,1,1,1,1,0,1,0,0,1,1,1,1,1,0,1,1,1,1,0,1,1,1,0,1,1,1,1,0,0,1,1,0,1,1,0,1,1,1,0,0,0,1,0,1,0,1,1,0,1,1,0,0,1,1,0,0,0,0,0,0,0,0,0,0,0,0,0,0,0,0,0,0,0,0,0,0,0,0,0],"id":0,"left_children":[1,3,5,7,9,11,-1,13,15,-1,-1,17,19,21,23,25,-1,27,-1,-1,29,31,33,35,37,-1,39,41,43,45,-1,47,49,51,-1,53,55,57,59,-1,-1,61,63,-1,65,67,-1,69,71,73,-1,-1,-1,75,-1,77,-1,79,81,-1,83,85,-1,-1,87,89,-1,-1,-1,-1,-1,-1,-1,-1,-1,-1,-1,-1,-1,-1,-1,-1,-1,-1,-1,-1,-1,-1,-1,-1,-1],"loss_changes":[9.805375E0,8.825907E0,1.1010686E1,6.5381527E0,9.620157E0,6.7688475E0,0E0,6.0125446E0,7.6897006E0,0E0,0E0,4.657408E0,3.290926E0,4.0989766E0,4.556761E0,1.493207E0,0E0,4.450277E0,0E0,0E0,3.4904432E0,2.1760483E0,2.4820518E-1,6.6835327E0,9.138864E0,0E0,3.1847627E0,7.1988406E0,1.7843418E0,6.787226E-1,0E0,4.411348E0,5.9718914E0,4.151317E0,0E0,5.526962E-1,7.663741E0,5.4291496E0,4.196885E0,0E0,0E0,6.8597636E0,1.4837356E0,0E0,1.6843412E0,3.8012567E0,0E0,5.4799995E0,1.471148E0,6.459638E0,0E0,0E0,0E0,7.537079E-1,0E0,3.8514328E0,0E0,8.1927595E0,4.8013744E0,0E0,6.172503E0,2.0861478E0,0E0,0E0,3.4402556E0,1.1777295E0,0E0,0E0,0E0,0E0,0E0,0E0,0E0,0E0,0E0,0E0,0E0,0E0,0E0,0E0,0E0,0E0,0E0,0E0,0E0,0E0,0E0,0E0,0E0,0E0,0E0],"parents":[2147483647,0,0,1,1,2,2,3,3,4,4,5,5,7,7,8,8,11,11,12,12,13,13,14,14,15,15,17,17,20,20,21,21,22,22,23,23,24,24,26,26,27,27,28,28,29,29,31,31,32,32,33,33,35,35,36,36,37,37,38,38,41,41,42,42,44,44,45,45,47,47,48,48,49,49,53,53,55,55,57,57,58,58,60,60,61,61,64,64,65,65],"right_children":[2,4,6,8,10,12,-1,14,16,-1,-1,18,20,22,24,26,-1,28,-1,-1,30,32,34,36,38,-1,40,42,44,46,-1,48,50,52,-1,54,56,58,60,-1,-1,62,64,-1,66,68,-1,70,72,74,-1,-1,-1,76,-1,78,-1,80,82,-1,84,86,-1,-1,88,90,-1,-1,-1,-1,-1,-1,-1,-1,-1,-1,-1,-1,-1,-1,-1,-1,-1,-1,-1,-1,-1,-1,-1,-1,-1],"split_conditions":[9.15E1,5E-1,5E-1,5E-1,3.2E1,5E-1,1.0763889E-1,8.05E1,5E-1,-1.5137614E-1,9.1836736E-2,1.085E2,9.65E1,5E-1,8.25E1,6.85E1,-1.4361702E-1,5E-1,-1.231884E-1,-1.5137614E-1,5E-1,5E-1,5E-1,5E-1,5E-1,9.1836736E-2,9E1,2.5E0,9.45E1,1.015E2,6.481481E-2,5E-1,3.5E0,7.3E1,1.0759493E-1,5E-1,5E-1,8.65E1,8.35E1,-9.1836736E-2,6.481481E-2,5E-1,9.55E1,8.82353E-2,1.005E2,1.005E2,-1.1016949E-1,5E-1,7.95E1,5E-1,9.1836736E-2,8.928572E-2,-7.954545E-2,1.5E0,2.34375E-2,8.15E1,1.146789E-1,5E-1,1.5E0,6.481481E-2,5E-1,1.075E2,-1.4361702E-1,1.2837838E-1,3E0,9.85E1,5.851064E-2,-1.0185184E-1,6.481481E-2,-1.624738E-2,5.8232933E-2,2.293578E-2,1.2837838E-1,-1.4903846E-1,4.237288E-2,1.2750717E-1,2.34375E-2,3.3653848E-2,-8.139535E-2,-2.8473804E-2,5.743243E-2,6.9352165E-2,-3.723404E-2,-1.12068966E-1,6.481481E-2,-2.1849593E-2,4.5454543E-2,-7.954545E-2,9.1836736E-2,4.201681E-3,-7.954545E-2],"split_indices":[0,243,243,210,247,208,0,0,2,0,0,0,0,239,0,0,0,5,0,0,5,205,247,2,7,0,0,247,0,0,0,208,205,0,0,239,6,0,0,0,0,239,0,0,0,0,0,5,0,7,0,0,0,247,0,0,0,2,247,0,239,0,0,0,239,0,0,0,0,0,0,0,0,0,0,0,0,0,0,0,0,0,0,0,0,0,0,0,0,0,0],"split_type":[0,0,0,0,0,0,0,0,0,0,0,0,0,0,0,0,0,0,0,0,0,0,0,0,0,0,0,0,0,0,0,0,0,0,0,0,0,0,0,0,0,0,0,0,0,0,0,0,0,0,0,0,0,0,0,0,0,0,0,0,0,0,0,0,0,0,0,0,0,0,0,0,0,0,0,0,0,0,0,0,0,0,0,0,0,0,0,0,0,0,0],"sum_hessian":[3.325E2,2.3975E2,9.275E1,2.3425E2,5.5E0,8.675E1,6E0,2.2675E2,7.5E0,4.25E0,1.25E0,7.625E1,1.05E1,7.825E1,1.485E2,4E0,3.5E0,7.4E1,2.25E0,4.25E0,6.25E0,7.15E1,6.75E0,3.375E1,1.1475E2,1.25E0,2.75E0,6E1,1.4E1,4.75E0,1.5E0,6.45E1,7E0,4E0,2.75E0,2.025E1,1.35E1,1.0425E2,1.05E1,1.25E0,1.5E0,5.525E1,4.75E0,4.75E0,9.25E0,3E0,1.75E0,5.775E1,6.75E0,5.75E0,1.25E0,3E0,1E0,1.825E1,2E0,9.25E0,4.25E0,4.175E1,6.25E1,1.5E0,9E0,5.175E1,3.5E0,2.5E0,2.25E0,5.75E0,3.5E0,1.5E0,1.5E0,4.65E1,1.125E1,4.25E0,2.5E0,4E0,1.75E0,1.625E1,2E0,4E0,5.25E0,2.075E1,2.1E1,5.9E1,3.5E0,7.5E0,1.5E0,4.8E1,3.75E0,1E0,1.25E0,4.75E0,1E0],"tree_param":{"num_deleted":"0","num_feature":"261","num_nodes":"91","size_leaf_vector":"0"}},{"base_weights":[1.4968973E-1,2.1134253E-1,-2.7657345E-1,1.6475351E-1,6.988284E-1,-4.404571E-1,7.205485E-1,2.2082318E-1,-2.085425E-1,8.150056E-1,-9.6048325E-2,-9.7202845E-2,-1.6118946E0,1.0019419E0,7.4757196E-2,2.3189595E-1,-8.444791E-1,-3.549893E-1,3.8499266E-1,9.125077E-1,-0E0,-1.0249684E0,8.72482E-1,-3.4431157E-1,9.9373484E-1,1.00134134E-1,3.2581204E-1,-4.4775194E-1,6.6033006E-1,5.8951396E-2,8.857844E-1,9.592256E-1,2.3743372E-1,-5.784297E-1,1.0571148E0,2.0597683E-1,1.2835256E0,1.5097424E-1,-1.2092363E0,2.8905186E-1,1.0901212E0,-5.336523E-1,4.0413442E-1,-3.3400542E-1,8.857844E-1,1.072967E0,5.185118E-2,-7.076152E-1,6.134982E-1,1.8856284E-1,-3.014905E-1,3.260619E-1,-5.874315E-1,-4.4371477E-1,-1.0175382E0,-8.834957E-1,9.9822685E-2,-5.570352E-1,-1.2263793E0,1.4608881E-1,7.048426E-1,-7.546983E-1,8.894471E-1,2.5318137E-1,9.494573E-1,8.372088E-2,-1.1690931E0,-3.6337245E-1,-8.8438493E-1,-4.1248068E-1,-1.1000179E0],"categories":[],"categories_nodes":[],"categories_segments":[],"categories_sizes":[],"default_left":[1,1,1,1,1,1,1,1,1,1,1,1,0,0,0,1,0,1,1,1,0,0,0,1,1,1,1,1,0,1,0,1,0,1,0,0,0,1,0,1,0,1,0,1,0,0,0,1,0,1,1,1,1,1,0,0,0,1,0,0,0,0,0,0,0,0,0,0,0,0,0],"id":1,"left_children":[1,3,5,7,9,11,13,15,17,19,21,23,-1,-1,-1,25,-1,27,29,31,-1,-1,-1,33,35,37,39,41,-1,43,-1,45,-1,47,-1,-1,-1,49,-1,51,-1,53,-1,55,-1,-1,-1,57,-1,59,61,63,65,67,-1,-1,-1,69,-1,-1,-1,-1,-1,-1,-1,-1,-1,-1,-1,-1,-1],"loss_changes":[8.811934E0,6.285408E0,7.1933365E0,5.686064E0,2.5512543E0,1.431571E1,7.649064E-1,2.8530426E0,3.2114968E0,1.6133623E0,4.6597404E0,8.378688E0,0E0,0E0,0E0,2.7461271E0,0E0,3.047401E0,8.757101E-1,4.0088654E-2,0E0,0E0,0E0,9.035707E0,6.097255E-1,6.6172895E0,3.0643682E0,2.314776E0,0E0,2.4245195E0,0E0,1.4503651E0,0E0,4.0740223E0,0E0,0E0,0E0,1.6998978E0,0E0,4.3995886E0,0E0,2.2022057E-1,0E0,1.4212465E0,0E0,0E0,0E0,4.0817738E-1,0E0,1.6671097E0,4.7862716E0,5.149685E0,2.5140963E0,1.6656351E-1,0E0,0E0,0E0,5.8275986E-1,0E0,0E0,0E0,0E0,0E0,0E0,0E0,0E0,0E0,0E0,0E0,0E0,0E0],"parents":[2147483647,0,0,1,1,2,2,3,3,4,4,5,5,6,6,7,7,8,8,9,9,10,10,11,11,15,15,17,17,18,18,19,19,23,23,24,24,25,25,26,26,27,27,29,29,31,31,33,33,37,37,39,39,41,41,43,43,47,47,49,49,50,50,51,51,52,52,53,53,57,57],"right_children":[2,4,6,8,10,12,14,16,18,20,22,24,-1,-1,-1,26,-1,28,30,32,-1,-1,-1,34,36,38,40,42,-1,44,-1,46,-1,48,-1,-1,-1,50,-1,52,-1,54,-1,56,-1,-1,-1,58,-1,60,62,64,66,68,-1,-1,-1,70,-1,-1,-1,-1,-1,-1,-1,-1,-1,-1,-1,-1,-1],"split_conditions":[5E-1,1.5E0,1.15E1,5E-1,8.5E0,5E-1,1.15E1,3E0,5E-1,5E-1,3.25E1,5E-1,-1.6118947E-1,1.0019419E-1,7.47572E-3,5E-1,-8.444791E-2,5E-1,5E-1,5E-1,-0E0,-1.0249684E-1,8.72482E-2,6E0,5E-1,5E-1,5E-1,5E-1,6.6033006E-2,5E-1,8.857844E-2,6.5E0,2.3743372E-2,5E-1,1.0571148E-1,2.0597683E-2,1.2835257E-1,5E-1,-1.2092363E-1,5E-1,1.0901212E-1,5E-1,4.0413443E-2,5E-1,8.857844E-2,1.07296705E-1,5.185118E-3,5E-1,6.134982E-2,1.5E0,1.5E0,5E-1,5E-1,5E-1,-1.0175382E-1,-8.834957E-2,9.982268E-3,5E-1,-1.2263793E-1,1.4608881E-2,7.0484266E-2,-7.546983E-2,8.894471E-2,2.5318136E-2,9.494573E-2,8.372088E-3,-1.1690932E-1,-3.6337245E-2,-8.8438496E-2,-4.124807E-2,-1.10001795E-1],"split_indices":[206,251,208,7,247,205,206,239,251,7,247,204,0,0,0,1,0,209,238,208,0,0,0,247,6,205,238,205,0,239,0,247,0,238,0,0,0,208,0,209,0,208,0,247,0,0,0,247,0,247,209,208,208,247,0,0,0,6,0,0,0,0,0,0,0,0,0,0,0,0,0],"split_type":[0,0,0,0,0,0,0,0,0,0,0,0,0,0,0,0,0,0,0,0,0,0,0,0,0,0,0,0,0,0,0,0,0,0,0,0,0,0,0,0,0,0,0,0,0,0,0,0,0,0,0,0,0,0,0,0,0,0,0,0,0,0,0,0,0,0,0,0,0,0,0],"sum_hessian":[3.3205698E2,2.911394E2,4.091757E1,2.67676E2,2.3463402E1,3.5932476E1,4.9850936E0,2.3372932E2,3.394668E1,2.0719254E1,2.7441473E0,2.89597E1,6.9727764E0,2.7415786E0,2.2435153E0,2.3248631E2,1.2430085E0,2.795312E1,5.993561E0,1.8222904E1,2.4963498E0,1.4967793E0,1.2473681E0,2.4467894E1,4.4918046E0,9.8889015E1,1.335973E2,2.6453297E1,1.4998211E0,4.7448726E0,1.2486881E0,1.6224659E1,1.9982443E0,2.1722153E1,2.7457411E0,1.992118E0,2.4996865E0,9.639863E1,2.4903886E0,1.2935669E2,4.2406144E0,2.4704E1,1.7492971E0,3.4961846E0,1.2486881E0,1.3977971E1,2.246688E0,2.0227194E1,1.4949596E0,9.016093E1,6.2377014E0,1.2511256E2,4.244133E0,2.3207552E1,1.4964485E0,1.2479601E0,2.2482245E0,1.7978947E1,2.2482474E0,8.517724E1,4.9836874E0,4.988732E0,1.2489698E0,1.1388657E2,1.1225977E1,2.2478821E0,1.9962509E0,2.1960562E1,1.2469897E0,1.6230122E1,1.7488241E0],"tree_param":{"num_deleted":"0","num_feature":"261","num_nodes":"71","size_leaf_vector":"0"}},{"base_weights":[1.359379E-1,2.3394343E-1,-1.14411965E-1,2.6285607E-1,-7.908233E-1,-2.0042853E-1,9.266406E-1,2.9051062E-1,-4.7197968E-1,-1.374193E0,5.918997E-1,-3.178689E-1,2.4950449E-1,1.20995626E-1,1.1592679E0,2.4399787E-1,7.97176E-1,-1.2951688E0,3.2888073E-1,-4.6194002E-1,2.8967232E-1,3.997253E-1,-8.3179265E-1,-0E0,3.6922035E-1,1.0972137E0,-1.1107019E0,8.688305E-1,-4.3352E-2,-2.7571875E-1,-1.0344372E0,-1.3441497E-1,6.1382186E-1,9.242374E-1,1.06966846E-1,1.2137773E-1,-1.5033295E0,2.8856003E-1,6.973956E-1,-8.529554E-1,6.1607563E-1,-4.829603E-1,7.109471E-1,-1.6370354E0,-3.709086E-2,-5.160414E-1,5.7099724E-1,8.615524E-2,7.483025E-1,1.6877922E-1,1.2097702E0,-3.8848463E-2,8.3975196E-1,6.354464E-2,9.9389774E-1,6.2821966E-1,1.5020657E-1,7.7822405E-1,-0E0,-3.3632788E-1,-1.4038349E0,1.1443938E0,-4.0137663E-2,5.4894954E-1,-1.0414305E0,8.123849E-2,-1.0895413E0,-3.027058E-1,3.0024797E-1,1.5429327E-1,-1.2675812E0,7.5636446E-1,-3.1900182E-1,5.985386E-2,6.617759E-1,8.763423E-1,-9.375929E-1,-7.6152E-1,-1.7900394E-2,4.8343994E-2,8.828374E-1,7.841816E-2,-5.339054E-1,6.1585575E-1,-0E0],"categories":[],"categories_nodes":[],"categories_segments":[],"categories_sizes":[],"default_left":[1,1,1,1,1,1,1,1,1,0,0,1,1,0,0,1,1,0,1,1,1,1,0,1,1,0,0,0,1,1,1,1,1,1,1,1,0,1,1,0,0,1,1,0,1,1,0,0,0,0,0,1,0,1,0,1,1,0,1,1,0,0,0,1,0,0,0,1,1,0,0,0,0,0,0,0,0,0,0,0,0,0,0,0,0],"id":2,"left_children":[1,3,5,7,9,11,13,15,17,-1,-1,19,21,-1,-1,23,25,-1,27,29,31,33,-1,35,37,-1,-1,-1,39,41,43,45,47,49,51,53,-1,55,57,-1,-1,59,61,-1,63,65,-1,-1,-1,-1,-1,67,-1,69,-1,71,73,-1,75,77,-1,-1,-1,79,-1,-1,-1,81,83,-1,-1,-1,-1,-1,-1,-1,-1,-1,-1,-1,-1,-1,-1,-1,-1],"loss_changes":[8.226279E0,7.2356815E0,8.432277E0,4.8905334E0,6.539341E0,4.749569E0,8.5030794E-1,4.8640747E0,6.4520063E0,0E0,0E0,6.380009E0,3.2792935E0,0E0,0E0,6.3648777E0,1.1840062E1,0E0,1.2936809E0,5.4958305E0,2.133884E0,2.259593E0,0E0,1.3305385E1,3.1803532E0,0E0,0E0,0E0,2.7922297E0,9.680021E0,7.5794325E0,2.1395726E0,3.13313E-1,6.369424E-1,1.5942749E0,3.1312208E0,0E0,5.044585E0,1.5756512E0,0E0,0E0,4.2121315E0,2.9981513E0,0E0,4.60077E0,2.1390328E0,0E0,0E0,0E0,0E0,0E0,1.1330892E0,0E0,7.9372516E0,0E0,4.2910967E0,3.6099484E0,0E0,4.031653E0,4.543828E0,0E0,0E0,0E0,5.010315E-1,0E0,0E0,0E0,8.2012856E-1,5.549551E-1,0E0,0E0,0E0,0E0,0E0,0E0,0E0,0E0,0E0,0E0,0E0,0E0,0E0,0E0,0E0,0E0],"parents":[2147483647,0,0,1,1,2,2,3,3,4,4,5,5,6,6,7,7,8,8,11,11,12,12,15,15,16,16,18,18,19,19,20,20,21,21,23,23,24,24,28,28,29,29,30,30,31,31,32,32,33,33,34,34,35,35,37,37,38,38,41,41,42,42,44,44,45,45,51,51,53,53,55,55,56,56,58,58,59,59,63,63,67,67,68,68],"right_children":[2,4,6,8,10,12,14,16,18,-1,-1,20,22,-1,-1,24,26,-1,28,30,32,34,-1,36,38,-1,-1,-1,40,42,44,46,48,50,52,54,-1,56,58,-1,-1,60,62,-1,64,66,-1,-1,-1,-1,-1,68,-1,70,-1,72,74,-1,76,78,-1,-1,-1,80,-1,-1,-1,82,84,-1,-1,-1,-1,-1,-1,-1,-1,-1,-1,-1,-1,-1,-1,-1,-1],"split_conditions":[9.15E1,5E-1,5E-1,5E-1,1.5E0,5E-1,5E-1,1.5E0,5E-1,-1.374193E-1,5.918997E-2,5E-1,5E-1,1.2099563E-2,1.15926795E-1,8.05E1,8.85E1,-1.2951688E-1,6.85E1,1.015E2,9.65E1,9.45E1,-8.3179265E-2,5E-1,8.95E1,1.0972138E-1,-1.1107019E-1,8.688305E-2,9E1,9.95E1,1.075E2,5E-1,5E-1,5E-1,5E-1,1.5E0,-1.5033296E-1,8.25E1,5E-1,-8.529554E-2,6.1607566E-2,9.75E1,5E-1,-1.6370355E-1,1.085E2,9.25E1,5.7099726E-2,8.6155245E-3,7.483026E-2,1.6877923E-2,1.2097702E-1,1.005E2,8.3975196E-2,5E-1,9.938978E-2,5E-1,5E-1,7.782241E-2,5E-1,9.35E1,-1.403835E-1,1.1443938E-1,-4.0137665E-3,5E-1,-1.04143046E-1,8.1238495E-3,-1.0895413E-1,5E-1,1.02E2,1.5429327E-2,-1.2675813E-1,7.563645E-2,-3.1900182E-2,5.985386E-3,6.617759E-2,8.763423E-2,-9.375929E-2,-7.6152004E-2,-1.7900395E-3,4.8343996E-3,8.828374E-2,7.841816E-3,-5.339054E-2,6.1585575E-2,-0E0],"split_indices":[0,243,243,210,238,5,238,251,1,0,0,3,204,0,0,0,0,0,0,0,0,0,0,251,0,0,0,0,0,0,0,251,1,251,210,204,0,0,3,0,0,0,1,0,0,0,0,0,0,0,0,0,0,209,0,251,251,0,1,0,0,0,0,6,0,0,0,1,0,0,0,0,0,0,0,0,0,0,0,0,0,0,0,0,0],"split_type":[0,0,0,0,0,0,0,0,0,0,0,0,0,0,0,0,0,0,0,0,0,0,0,0,0,0,0,0,0,0,0,0,0,0,0,0,0,0,0,0,0,0,0,0,0,0,0,0,0,0,0,0,0,0,0,0,0,0,0,0,0,0,0,0,0,0,0,0,0,0,0,0,0,0,0,0,0,0,0,0,0,0,0,0,0],"sum_hessian":[3.3155133E2,2.3904759E2,9.250373E1,2.3359319E2,5.454414E0,8.656079E1,5.9429398E0,2.261482E2,7.4449825E0,3.9683683E0,1.4860456E0,6.9363556E1,1.7197235E1,1.9810193E0,3.9619205E0,2.0921336E2,1.6934835E1,3.4600062E0,3.9849763E0,5.663284E1,1.273072E1,1.5966643E1,1.2305921E0,7.183265E1,1.373807E2,1.5187353E1,1.747482E0,1.246923E0,2.7380533E0,4.440382E1,1.2229017E1,5.4853463E0,7.2453732E0,4.4863906E0,1.1480252E1,6.7593765E1,4.238885E0,1.126982E2,2.468251E1,1.2411683E0,1.4968851E0,3.7411762E1,6.992059E0,6.987079E0,5.2419376E0,3.998639E0,1.4867073E0,2.2489347E0,4.9964385E0,1.9944323E0,2.4919584E0,1.0238194E1,1.2420578E0,6.486805E1,2.7257168E0,3.0865988E1,8.1832214E1,2.2186924E1,2.4955864E0,3.3920322E1,3.4914382E0,4.2461166E0,2.7459426E0,3.4967453E0,1.7451923E0,2.249725E0,1.748914E0,6.24493E0,3.993265E0,6.189698E1,2.9710696E0,2.7633333E1,3.232655E0,7.110316E1,1.0729054E1,1.2477996E0,1.2477868E0,1.3473895E1,2.044643E1,2.2483091E0,1.2484361E0,2.249077E0,3.9958525E0,1.4975498E0,2.4957151E0],"tree_param":{"num_deleted":"0","num_feature":"261","num_nodes":"85","size_leaf_vector":"0"}},{"base_weights":[1.229132E-1,1.5556517E-1,-4.4531828E-1,1.7270574E-1,-6.7123586E-1,-9.3778265E-1,6.4832836E-1,1.9582158E-1,-3.308109E-1,-1.226212E0,3.8820264E-1,-1.4178171E0,-4.0573674E-1,1.2856188E0,-8.487239E-1,2.4212874E-1,-9.720611E-2,-1.2132883E0,-5.920687E-3,9.753439E-2,-1.1204702E0,2.6277587E-1,-2.820565E-1,-2.437057E-1,4.3166688E-1,6.2581754E-1,-7.041589E-1,-2.593058E-1,8.006316E-1,2.2925107E-1,4.9863994E-1,-9.847112E-1,1.1630588E0,7.839014E-1,-1.2870654E-1,1.0529377E-1,8.1212497E-1,-1.3106422E0,5.6422144E-1,2.8219965E-1,-4.3037932E-2,2.4122407E-1,9.143027E-1,2.9626355E-1,-8.2361877E-1,-2.2302547E-1,9.316134E-1,-0E0,4.6011668E-1],"categories":[],"categories_nodes":[],"categories_segments":[],"categories_sizes":[],"default_left":[1,1,1,1,1,1,1,1,1,0,0,0,1,0,0,1,1,0,1,1,0,1,1,0,1,1,1,0,0,1,1,0,0,0,0,0,0,0,0,1,1,1,0,0,0,0,0,0,0],"id":3,"left_children":[1,3,5,7,9,11,13,15,17,-1,-1,-1,19,-1,-1,21,23,-1,25,27,-1,29,31,-1,33,35,37,-1,-1,39,41,-1,-1,-1,-1,-1,-1,-1,-1,43,45,47,-1,-1,-1,-1,-1,-1,-1],"loss_changes":[6.166475E0,4.479388E0,1.0455202E1,3.651061E0,4.513203E0,2.1756897E0,7.2544093E0,4.101776E0,3.578485E0,0E0,0E0,0E0,3.2994695E0,0E0,0E0,2.876544E0,3.2343879E0,0E0,5.5481534E0,1.8020427E0,0E0,1.6522408E0,1.1379875E1,0E0,2.0408206E0,2.8849936E-1,5.7945743E0,0E0,0E0,3.2668715E0,2.5576577E0,0E0,0E0,0E0,0E0,0E0,0E0,0E0,0E0,3.0585403E0,6.4440064E0,1.0723568E0,0E0,0E0,0E0,0E0,0E0,0E0,0E0],"parents":[2147483647,0,0,1,1,2,2,3,3,4,4,5,5,6,6,7,7,8,8,12,12,15,15,16,16,18,18,19,19,21,21,22,22,24,24,25,25,26,26,29,29,30,30,39,39,40,40,41,41],"right_children":[2,4,6,8,10,12,14,16,18,-1,-1,-1,20,-1,-1,22,24,-1,26,28,-1,30,32,-1,34,36,38,-1,-1,40,42,-1,-1,-1,-1,-1,-1,-1,-1,44,46,48,-1,-1,-1,-1,-1,-1,-1],"split_conditions":[1.5E0,5E-1,1.15E1,5E-1,5E-1,5E-1,4.7E1,5E-1,5E-1,-1.226212E-1,3.8820263E-2,-1.4178172E-1,5.5E0,1.2856188E-1,-8.487239E-2,5E-1,5E-1,-1.2132883E-1,1.5E0,5E-1,-1.1204702E-1,5E-1,1.5E0,-2.4370572E-2,5E-1,5E-1,5E-1,-2.5930582E-2,8.006316E-2,5E-1,5E-1,-9.847113E-2,1.1630588E-1,7.8390144E-2,-1.2870654E-2,1.05293775E-2,8.12125E-2,-1.3106422E-1,5.6422144E-2,5E-1,3.5E0,1.5E0,9.143027E-2,2.9626355E-2,-8.236188E-2,-2.2302547E-2,9.316134E-2,-0E0,4.6011668E-2],"split_indices":[208,210,208,205,3,1,207,7,207,0,0,0,207,0,0,212,207,0,207,210,0,239,207,0,1,1,3,0,0,207,207,0,0,0,0,0,0,0,0,243,207,239,0,0,0,0,0,0,0],"split_type":[0,0,0,0,0,0,0,0,0,0,0,0,0,0,0,0,0,0,0,0,0,0,0,0,0,0,0,0,0,0,0,0,0,0,0,0,0,0,0,0,0,0,0,0,0,0,0,0,0],"sum_hessian":[3.3057855E2,3.138551E2,1.6723454E1,3.0870697E2,5.1481504E0,1.1806604E1,4.916849E0,2.9633252E2,1.2374451E1,3.409298E0,1.7388526E0,4.9094224E0,6.897182E0,3.684741E0,1.2321081E0,2.5681036E2,3.952214E1,2.2397985E0,1.0134652E1,4.450135E0,2.4470465E0,2.4811284E2,8.697537E0,3.1825977E1,7.696162E0,5.1980667E0,4.9365854E0,3.2185178E0,1.2316176E0,2.2023569E2,2.7877144E1,6.225727E0,2.4718108E0,4.7057347E0,2.9904273E0,2.2188604E0,2.9792063E0,3.4459858E0,1.4905995E0,1.851135E2,3.5122204E1,1.8758217E1,9.118928E0,1.8387947E2,1.2340126E0,3.0644953E1,4.4772506E0,9.407301E0,9.350916E0],"tree_param":{"num_deleted":"0","num_feature":"261","num_nodes":"49","size_leaf_vector":"0"}},{"base_weights":[1.1035429E-1,6.8881795E-2,5.433181E-1,7.7911384E-2,-8.941618E-1,6.7226803E-1,-9.122276E-1,5.5215377E-2,7.8068256E-1,3.3033016E-1,9.022175E-1,6.731067E-2,-1.0129601E0,7.533136E-1,-0E0,9.750827E-1,1.8377233E-1,1.05457105E-1,-1.93257E-1,-1.1046321E0,4.718565E-1,1.1944845E0,4.8422304E-1,1.2971124E-1,-7.89372E-1,-5.792279E-1,1.0015653E-1,6.156582E-1,4.7980852E-2,-0E0,7.183083E-1,1.2131406E-1,8.248375E-1,-7.720994E-1,8.1294787E-1,5.593472E-1,-1.5511341E-1,1.4299223E-1,8.271242E-1,5.793988E-2,1.6588008E-1,-3.7529498E-1,-1.0349944E0,-6.289412E-1,5.5394065E-1],"categories":[],"categories_nodes":[],"categories_segments":[],"categories_sizes":[],"default_left":[1,1,1,1,0,1,0,1,0,1,1,1,0,0,1,1,0,1,1,0,1,0,1,1,0,1,1,1,0,0,0,1,0,1,0,0,1,0,0,0,0,0,0,0,0],"id":4,"left_children":[1,3,5,7,-1,9,-1,11,-1,13,15,17,-1,-1,19,21,-1,23,25,-1,27,-1,29,31,-1,33,35,37,-1,-1,-1,39,-1,41,-1,-1,43,-1,-1,-1,-1,-1,-1,-1,-1],"loss_changes":[5.743846E0,2.5220673E0,5.973524E0,4.562943E0,0E0,1.4396229E0,0E0,3.6515532E0,0E0,1.9195392E0,2.7420235E-1,2.9114075E0,0E0,0E0,5.0769324E0,2.771263E-1,0E0,5.5334187E0,4.3749876E0,0E0,2.0388627E-1,0E0,6.400504E-1,1.1109381E0,0E0,5.175287E0,2.7432103E0,5.7575345E-2,0E0,0E0,0E0,6.39102E-1,0E0,7.744055E-1,0E0,0E0,5.3103113E0,0E0,0E0,0E0,0E0,0E0,0E0,0E0,0E0],"parents":[2147483647,0,0,1,1,2,2,3,3,5,5,7,7,9,9,10,10,11,11,14,14,15,15,17,17,18,18,20,20,22,22,23,23,25,25,26,26,27,27,31,31,33,33,36,36],"right_children":[2,4,6,8,-1,10,-1,12,-1,14,16,18,-1,-1,20,22,-1,24,26,-1,28,-1,30,32,-1,34,36,38,-1,-1,-1,40,-1,42,-1,-1,44,-1,-1,-1,-1,-1,-1,-1,-1],"split_conditions":[1.5E0,3E0,5E-1,5E-1,-8.941618E-2,5E-1,-9.1222756E-2,5E-1,7.806826E-2,2.5E0,5E-1,1.5E0,-1.0129601E-1,7.533136E-2,5E-1,5E-1,1.8377233E-2,5E-1,3.5E0,-1.1046322E-1,4.5E0,1.19448446E-1,3E0,5E-1,-7.89372E-2,5E-1,4.5E0,5E-1,4.7980854E-3,-0E0,7.183083E-2,5E-1,8.248375E-2,5E-1,8.129479E-2,5.5934723E-2,2.3E1,1.4299223E-2,8.271242E-2,5.7939882E-3,1.6588008E-2,-3.75295E-2,-1.03499435E-1,-6.289412E-2,5.5394065E-2],"split_indices":[251,239,205,238,0,239,0,243,0,251,245,207,0,0,1,1,0,212,207,0,251,0,239,237,0,212,207,245,0,0,0,1,0,1,0,0,207,0,0,0,0,0,0,0,0],"split_type":[0,0,0,0,0,0,0,0,0,0,0,0,0,0,0,0,0,0,0,0,0,0,0,0,0,0,0,0,0,0,0,0,0,0,0,0,0,0,0,0,0,0,0,0,0],"sum_hessian":[3.297076E2,3.0268274E2,2.7024878E1,3.0122098E2,1.4617653E0,2.5576513E1,1.4483625E0,2.9339575E2,7.8252044E0,1.1896819E1,1.3679695E1,2.9145395E2,1.9417994E0,4.7008777E0,7.195942E0,1.171493E1,1.9647651E0,2.5569469E2,3.575927E1,1.7475914E0,5.4483504E0,6.555384E0,5.1595454E0,2.5021803E2,5.4766674E0,1.530691E1,2.045236E1,3.222401E0,2.2259498E0,2.229076E0,2.9304698E0,2.489794E2,1.2386203E0,1.4071506E1,1.2354045E0,7.1466217E0,1.33057375E1,1.983211E0,1.23919E0,1.0625354E2,1.4272588E2,7.1474314E0,6.9240737E0,8.26847E0,5.037268E0],"tree_param":{"num_deleted":"0","num_feature":"261","num_nodes":"45","size_leaf_vector":"0"}},{"base_weights":[1.0027147E-1,6.168861E-2,5.0543666E-1,1.0207831E-1,-2.2742036E-1,6.28136E-1,-8.6812234E-1,1.356336E-1,-2.734088E-1,-3.3573866E-1,6.176677E-1,6.844542E-1,1.8216103E-1,1.4680819E-1,-9.544711E-1,-5.0562036E-1,2.736869E-1,-6.1271447E-1,1.7784178E-2,9.317528E-1,4.289009E-1,-9.886315E-1,1.0635642E0,1.6029325E-1,-4.5206302E-1,-6.673765E-1,4.2099598E-1,6.899015E-1,-7.49776E-1,-7.566536E-1,5.268899E-1,1.8978816E-1,-3.8179508E-1,1.087928E0,1.0296421E-1,-8.287057E-2,5.679349E-1,1.8155524E-1,-9.108772E-2,-3.9980906E-1,-1.1255862E0,3.0882782E-3,1.030222E0,-9.0451384E-1,1.1075712E-1,1.8808669E-1,-0E0,-2.0764631E-1,7.075292E-1,-2.366052E-1,6.981045E-1],"categories":[],"categories_nodes":[],"categories_segments":[],"categories_sizes":[],"default_left":[1,1,1,1,1,1,0,1,1,1,0,1,1,1,0,1,1,1,1,1,1,0,0,1,0,1,0,1,0,1,0,0,0,0,0,0,0,1,1,0,0,0,0,0,0,0,1,0,0,0,0],"id":5,"left_children":[1,3,5,7,9,11,-1,13,15,17,-1,19,21,23,-1,25,27,29,31,33,35,-1,-1,37,-1,39,-1,41,-1,43,-1,-1,-1,-1,-1,-1,-1,45,47,-1,-1,-1,-1,-1,-1,-1,49,-1,-1,-1,-1],"loss_changes":[4.9835205E0,3.5401714E0,5.3107843E0,3.3849738E0,3.548119E0,3.0065536E-1,0E0,2.978704E0,2.9885058E0,3.4586556E0,0E0,6.112833E-1,6.5538435E0,2.0011249E0,0E0,2.7997046E0,3.562789E0,3.7031903E0,1.1084204E0,8.605051E-1,1.1636791E0,0E0,0E0,1.3355565E0,0E0,8.357229E-1,0E0,1.0779712E0,0E0,2.6055937E0,0E0,0E0,0E0,0E0,0E0,0E0,0E0,2.8157473E-1,1.796608E0,0E0,0E0,0E0,0E0,0E0,0E0,0E0,1.5730737E0,0E0,0E0,0E0,0E0],"parents":[2147483647,0,0,1,1,2,2,3,3,4,4,5,5,7,7,8,8,9,9,11,11,12,12,13,13,15,15,16,16,17,17,18,18,19,19,20,20,23,23,25,25,27,27,29,29,37,37,38,38,46,46],"right_children":[2,4,6,8,10,12,-1,14,16,18,-1,20,22,24,-1,26,28,30,32,34,36,-1,-1,38,-1,40,-1,42,-1,44,-1,-1,-1,-1,-1,-1,-1,46,48,-1,-1,-1,-1,-1,-1,-1,50,-1,-1,-1,-1],"split_conditions":[1.5E0,5E-1,5E-1,5E-1,5E-1,8.5E0,-8.6812235E-2,5E-1,3.5E0,5E-1,6.176677E-2,2.5E0,3.25E1,5E-1,-9.5447116E-2,5E-1,5.5E0,2.5E0,2.5E0,4.5E0,3.5E0,-9.886315E-2,1.0635642E-1,5E-1,-4.5206305E-2,5E-1,4.20996E-2,4.5E0,-7.49776E-2,5E-1,5.2688994E-2,1.8978817E-2,-3.817951E-2,1.08792804E-1,1.0296421E-2,-8.287057E-3,5.679349E-2,5E-1,5E-1,-3.9980907E-2,-1.1255862E-1,3.0882782E-4,1.0302221E-1,-9.045138E-2,1.1075712E-2,1.8808668E-2,5E-1,-2.0764632E-2,7.075292E-2,-2.366052E-2,6.981045E-2],"split_indices":[251,247,205,205,238,247,0,220,205,251,0,251,247,210,0,210,205,247,247,247,251,0,0,251,0,209,0,209,0,205,0,0,0,0,0,0,0,212,250,0,0,0,0,0,0,0,238,0,0,0,0],"split_type":[0,0,0,0,0,0,0,0,0,0,0,0,0,0,0,0,0,0,0,0,0,0,0,0,0,0,0,0,0,0,0,0,0,0,0,0,0,0,0,0,0,0,0,0,0,0,0,0,0,0,0],"sum_hessian":[3.2905682E2,3.0227197E2,2.6784863E1,2.6665958E2,3.56124E1,2.5353308E1,1.4315552E0,2.4609932E2,2.0560251E1,3.2469715E1,3.1426845E0,2.1443182E1,3.910124E0,2.4485703E2,1.2422855E0,1.481854E1,5.741712E0,1.8109089E1,1.4360626E1,8.7867565E0,1.2656426E1,1.4948485E0,2.4152756E0,2.407326E2,4.124429E0,1.3131706E1,1.6868331E0,4.5334477E0,1.2082641E0,1.6631098E1,1.477991E0,1.0916971E1,3.4436553E0,6.8240027E0,1.9627534E0,2.423258E0,1.0233169E1,2.2318343E2,1.754918E1,1.0053632E1,3.078074E0,2.146669E0,2.3867788E0,1.4411392E1,2.2197049E0,2.1582956E2,7.3538604E0,1.6362148E1,1.1870322E0,6.172986E0,1.1808746E0],"tree_param":{"num_deleted":"0","num_feature":"261","num_nodes":"51","size_leaf_vector":"0"}},{"base_weights":[9.053479E-2,1.4275439E-1,-2.7574873E-1,8.05319E-2,4.405786E-1,-4.070673E-1,5.388603E-1,5.17894E-2,8.1298125E-1,4.7886086E-1,-8.639831E-2,-1.392436E-1,-1.3642044E0,7.832763E-1,-0E0,9.8601796E-2,-1.9118491E-1,1.0837811E0,-0E0,5.0090545E-1,-0E0,-2.635205E-1,6.7600054E-1,1.3941757E-1,-1.0229427E-1,-9.6764594E-2,-1.091211E0,4.2078453E-1,8.01969E-1,-5.7574216E-2,-1.3213826E0,2.2980417E-1,1.6640265E-2,5.7041544E-2,-8.18578E-1,-2.9987183E-1,6.016367E-1,5.288297E-2,-9.644898E-1,1.5812686E-1,1.0745589E0,6.588852E-2,-1.0955768E0,-3.3430046E-1,3.7500817E-1,-1.3737848E0,3.2473204E-1,-2.113386E-1,-9.6464425E-1,8.066507E-1,-0E0,-7.0361965E-3,6.695563E-1,2.3241702E-3,6.054397E-1,1.2178602E-1,-5.722947E-1,-5.2731574E-1,6.783431E-1,5.571578E-1,-8.382966E-1,-2.9749015E-1,-4.5407973E-2,2.0761517E-1,9.8181754E-1,-1.1739715E-1,3.3876792E-1],"categories":[],"categories_nodes":[],"categories_segments":[],"categories_sizes":[],"default_left":[1,1,1,1,1,1,1,1,1,1,0,1,0,0,0,1,1,0,0,1,0,1,0,1,1,1,0,0,0,1,0,1,1,1,1,1,1,1,0,1,0,1,0,1,1,0,0,1,0,1,0,1,0,0,0,0,0,0,0,0,0,0,0,0,0,0,0],"id":6,"left_children":[1,3,5,7,9,11,13,15,17,19,-1,21,-1,-1,-1,23,25,-1,-1,27,-1,29,-1,31,33,35,-1,-1,-1,37,-1,39,41,43,45,47,49,51,-1,53,-1,55,-1,57,59,-1,-1,61,-1,63,-1,65,-1,-1,-1,-1,-1,-1,-1,-1,-1,-1,-1,-1,-1,-1,-1],"loss_changes":[6.3171697E0,5.197711E0,4.6088076E0,4.825613E0,1.1387329E0,8.674995E0,5.952604E-1,2.6651862E0,1.9502769E0,4.6731663E-1,0E0,3.132216E0,0E0,0E0,0E0,1.6512479E0,2.7550054E0,0E0,0E0,3.5763264E-1,0E0,5.4479604E0,0E0,1.7786372E0,4.026311E0,5.1656337E0,0E0,0E0,0E0,2.699243E0,0E0,5.2089005E0,3.8253617E0,3.635915E0,4.8540416E0,1.1398599E0,9.02215E-1,9.967193E-1,0E0,6.0332413E0,0E0,2.511272E0,0E0,2.8936825E0,4.098521E0,0E0,0E0,2.8455234E-1,0E0,7.646942E-2,0E0,8.006269E-1,0E0,0E0,0E0,0E0,0E0,0E0,0E0,0E0,0E0,0E0,0E0,0E0,0E0,0E0,0E0],"parents":[2147483647,0,0,1,1,2,2,3,3,4,4,5,5,6,6,7,7,8,8,9,9,11,11,15,15,16,16,19,19,21,21,23,23,24,24,25,25,29,29,31,31,32,32,33,33,34,34,35,35,36,36,37,37,39,39,41,41,43,43,44,44,47,47,49,49,51,51],"right_children":[2,4,6,8,10,12,14,16,18,20,-1,22,-1,-1,-1,24,26,-1,-1,28,-1,30,-1,32,34,36,-1,-1,-1,38,-1,40,42,44,46,48,50,52,-1,54,-1,56,-1,58,60,-1,-1,62,-1,64,-1,66,-1,-1,-1,-1,-1,-1,-1,-1,-1,-1,-1,-1,-1,-1,-1],"split_conditions":[5E-1,5E-1,1.15E1,2.5E0,5E-1,1.5E0,1.15E1,5E-1,8.5E0,1.5E0,-8.639831E-3,6E0,-1.3642044E-1,7.832763E-2,-0E0,5E-1,5E-1,1.0837811E-1,-0E0,5E-1,-0E0,5E-1,6.760006E-2,5E-1,5E-1,5E-1,-1.091211E-1,4.2078454E-2,8.01969E-2,5E-1,-1.3213827E-1,5E-1,5E-1,5E-1,5.5E0,5E-1,2E0,5E-1,-9.644898E-2,5E-1,1.0745589E-1,5E-1,-1.0955768E-1,5E-1,5E-1,-1.3737848E-1,3.2473203E-2,5E-1,-9.6464425E-2,5E-1,-0E0,5E-1,6.695563E-2,2.3241702E-4,6.0543973E-2,1.2178603E-2,-5.722947E-2,-5.2731574E-2,6.783431E-2,5.571578E-2,-8.382966E-2,-2.9749015E-2,-4.5407973E-3,2.0761518E-2,9.8181754E-2,-1.1739715E-2,3.387679E-2],"split_indices":[206,5,208,246,208,208,206,7,247,247,0,247,0,0,0,251,246,0,0,251,0,5,0,2,246,251,0,0,0,247,0,246,246,247,247,208,247,243,0,3,0,208,0,243,243,0,0,2,0,247,0,6,0,0,0,0,0,0,0,0,0,0,0,0,0,0,0],"split_type":[0,0,0,0,0,0,0,0,0,0,0,0,0,0,0,0,0,0,0,0,0,0,0,0,0,0,0,0,0,0,0,0,0,0,0,0,0,0,0,0,0,0,0,0,0,0,0,0,0,0,0,0,0,0,0,0,0,0,0,0,0,0,0,0,0,0,0],"sum_hessian":[3.2834058E2,2.886095E2,3.9731075E1,2.4068802E2,4.7921486E1,3.4996696E1,4.7343774E0,2.3316444E2,7.523583E0,4.5220417E1,2.7010663E0,2.8623196E1,6.3735003E0,2.578885E0,2.1554923E0,1.969594E2,3.620504E1,5.3691726E0,2.1544104E0,4.3086956E1,2.1334622E0,2.5807789E1,2.8154073E0,1.6504008E2,3.191931E1,3.4221684E1,1.9833573E0,3.695882E1,6.128137E0,2.2859165E1,2.9486237E0,9.328382E1,7.175626E1,2.672893E1,5.1903806E0,2.7319435E1,6.902248E0,2.1138931E1,1.7202346E0,8.757377E1,5.710054E0,7.000996E1,1.7463082E0,1.160187E1,1.5127059E1,3.4781196E0,1.7122612E0,2.583618E1,1.4832551E0,4.693723E0,2.208525E0,1.9978613E1,1.160318E0,6.626E1,2.1313766E1,6.5624725E1,4.385232E0,1.0434918E1,1.166951E0,1.389591E1,1.231149E0,1.5388401E1,1.0447779E1,1.978195E0,2.7155285E0,1.6294046E1,3.6845665E0],"tree_param":{"num_deleted":"0","num_feature":"261","num_nodes":"67","size_leaf_vector":"0"}},{"base_weights":[8.1469074E-2,5.9067782E-2,7.436966E-1,8.4956E-2,-3.870474E-1,9.502726E-2,-9.889982E-1,-7.9133236E-1,5.094468E-1,7.5198784E-2,6.0298043E-1,-9.962961E-1,-0E0,1.1129646E0,-8.0082303E-1,8.970212E-2,-1.0521581E0,9.076553E-1,-7.899469E-1,-1.3493485E0,-8.38345E-3,1.0285661E-1,-5.36332E-1,5.9043115E-1,-7.215066E-1,6.631745E-2,2.775922E-1,5.9427614E-3,-1.0059502E0,4.5352247E-2,6.493715E-1,4.0040287E-1,-1.1795248E0],"categories":[],"categories_nodes":[],"categories_segments":[],"categories_sizes":[],"default_left":[1,1,0,1,1,1,0,1,1,1,1,1,0,0,0,1,0,0,0,0,1,1,1,0,0,1,1,0,0,0,0,0,0],"id":7,"left_children":[1,3,-1,5,7,9,-1,11,13,15,17,19,-1,-1,-1,21,-1,-1,-1,-1,23,25,27,-1,-1,29,31,-1,-1,-1,-1,-1,-1],"loss_changes":[4.6187906E0,3.6521893E0,0E0,3.1703582E0,6.788949E0,2.8163443E0,0E0,1.9784551E0,5.800695E0,4.6528993E0,5.4291058E0,3.096589E0,0E0,0E0,0E0,2.3458107E0,0E0,0E0,0E0,0E0,2.2511785E0,1.7141495E0,1.726484E0,0E0,0E0,2.7100883E0,8.9256735E0,0E0,0E0,0E0,0E0,0E0,0E0],"parents":[2147483647,0,0,1,1,3,3,4,4,5,5,7,7,8,8,9,9,10,10,11,11,15,15,20,20,21,21,22,22,25,25,26,26],"right_children":[2,4,-1,6,8,10,-1,12,14,16,18,20,-1,-1,-1,22,-1,-1,-1,-1,24,26,28,-1,-1,30,32,-1,-1,-1,-1,-1,-1],"split_conditions":[2.5E0,1.5E0,7.436966E-2,5E-1,1.15E1,5E-1,-9.889982E-2,5E-1,4.7E1,5E-1,3E0,5E-1,-0E0,1.1129647E-1,-8.0082305E-2,5E-1,-1.0521581E-1,9.076553E-2,-7.899469E-2,-1.3493486E-1,6E0,5E-1,5E-1,5.9043117E-2,-7.215066E-2,3.5E0,1.5E0,5.942762E-4,-1.0059502E-1,4.5352248E-3,6.493715E-2,4.0040288E-2,-1.1795248E-1],"split_indices":[246,208,0,220,208,238,0,6,207,243,239,210,0,0,0,210,0,0,0,0,207,5,207,0,0,207,207,0,0,0,0,0,0],"split_type":[0,0,0,0,0,0,0,0,0,0,0,0,0,0,0,0,0,0,0,0,0,0,0,0,0,0,0,0,0,0,0,0,0],"sum_hessian":[3.272312E2,3.1815353E2,9.077692E0,3.0215143E2,1.6002079E1,3.0065854E2,1.4928939E0,1.1317805E1,4.6842737E0,2.9116254E2,9.496009E0,8.690322E0,2.6274831E0,3.4614234E0,1.2228506E0,2.8877377E2,2.3887715E0,8.2820215E0,1.2139881E0,5.89244E0,2.7978826E0,2.8420413E2,4.5696373E0,1.4424961E0,1.3553864E0,2.3760454E2,4.659959E1,2.4235723E0,2.1460652E0,2.3101974E2,6.584789E0,4.393816E1,2.6614313E0],"tree_param":{"num_deleted":"0","num_feature":"261","num_nodes":"33","size_leaf_vector":"0"}},{"base_weights":[7.221177E-2,9.635261E-2,-3.6470726E-1,6.1256945E-2,4.6060324E-1,-7.412035E-1,4.7178394E-1,6.996969E-2,-8.1887096E-1,5.542376E-1,-1.9909188E-1,-0E0,-1.2674185E0,1.0573814E0,-7.6498884E-1,1.0197731E-1,-1.2848462E-1,6.9628817E-1,-0E0,-9.7476107E-1,6.776009E-1,-7.3836285E-1,3.811033E-1,1.1324818E-1,-8.9330924E-1,-1.8774848E-1,7.593226E-1,9.069721E-1,4.1793457E-1,-4.4328272E-1,7.4744385E-1,-0E0,8.1185323E-1,9.715497E-2,7.189902E-1,-9.851842E-2,-1.050208E0,3.536821E-2,8.067345E-1,-1.1352736E0,6.711743E-1,1.2489507E-1,-2.8158072E-1,1.4965449E-2,1.0631334E0,-1.9691916E-1,3.0005273E-1,-1.01068325E-1,4.1250065E-1,1.5553537E-1,-8.578325E-2,-7.850178E-1,7.443051E-1,-2.611302E-1,4.1824275E-1,-0E0,8.078686E-1,-4.9947658E-1,6.3199395E-1],"categories":[],"categories_nodes":[],"categories_segments":[],"categories_sizes":[],"default_left":[1,1,1,1,1,1,1,1,0,1,1,1,0,0,0,1,1,1,1,0,0,0,1,1,0,1,0,0,1,1,0,0,0,1,1,1,0,1,0,0,0,1,1,0,0,1,1,1,0,0,0,0,0,0,0,0,0,0,0],"id":8,"left_children":[1,3,5,7,9,11,13,15,-1,17,19,21,-1,-1,-1,23,25,27,29,-1,-1,-1,31,33,-1,35,-1,-1,37,39,-1,-1,-1,41,43,45,-1,47,-1,-1,-1,49,51,-1,-1,53,55,57,-1,-1,-1,-1,-1,-1,-1,-1,-1,-1,-1],"loss_changes":[3.4280157E0,3.8205605E0,5.793431E0,2.0772305E0,1.8633304E0,4.9630575E0,5.2132607E0,1.8188814E0,0E0,2.0365124E0,3.488584E0,2.0343773E0,0E0,0E0,0E0,2.6982546E0,2.0810192E0,3.493929E-1,2.241768E0,0E0,0E0,0E0,8.789625E-1,2.106756E0,0E0,2.4977176E0,0E0,0E0,1.403025E0,4.545055E0,0E0,0E0,0E0,2.5358143E0,1.1088309E0,1.4508964E0,0E0,4.964556E-1,0E0,0E0,0E0,1.4927862E0,9.0812235E0,0E0,0E0,1.275765E0,9.5201004E-1,2.0212345E0,0E0,0E0,0E0,0E0,0E0,0E0,0E0,0E0,0E0,0E0,0E0],"parents":[2147483647,0,0,1,1,2,2,3,3,4,4,5,5,6,6,7,7,9,9,10,10,11,11,15,15,16,16,17,17,18,18,22,22,23,23,25,25,28,28,29,29,33,33,34,34,35,35,37,37,41,41,42,42,45,45,46,46,47,47],"right_children":[2,4,6,8,10,12,14,16,-1,18,20,22,-1,-1,-1,24,26,28,30,-1,-1,-1,32,34,-1,36,-1,-1,38,40,-1,-1,-1,42,44,46,-1,48,-1,-1,-1,50,52,-1,-1,54,56,58,-1,-1,-1,-1,-1,-1,-1,-1,-1,-1,-1],"split_conditions":[1.5E0,1.5E0,1.15E1,3E0,5E-1,5E-1,4.7E1,5E-1,-8.1887096E-2,5E-1,4E0,5E-1,-1.2674186E-1,1.0573814E-1,-7.649889E-2,4.5E0,1.5E0,2.5E0,5E-1,-9.747611E-2,6.7760095E-2,-7.383629E-2,5E-1,3.5E0,-8.933093E-2,5E-1,7.593226E-2,9.0697214E-2,5E-1,5E0,7.474439E-2,-0E0,8.1185326E-2,1.5E0,5E-1,5E-1,-1.050208E-1,5.5E0,8.067345E-2,-1.1352736E-1,6.711743E-2,5E-1,5E-1,1.4965449E-3,1.0631334E-1,5E-1,5E-1,1.5E0,4.1250065E-2,1.5553537E-2,-8.578326E-3,-7.850178E-2,7.443051E-2,-2.6113022E-2,4.1824277E-2,-0E0,8.078686E-2,-4.994766E-2,6.319939E-2],"split_indices":[208,251,208,239,3,209,207,7,0,245,239,1,0,0,0,207,204,251,208,0,0,0,6,207,0,208,0,0,207,227,0,0,0,207,209,251,0,251,0,0,0,251,3,0,0,209,239,239,0,0,0,0,0,0,0,0,0,0,0],"split_type":[0,0,0,0,0,0,0,0,0,0,0,0,0,0,0,0,0,0,0,0,0,0,0,0,0,0,0,0,0,0,0,0,0,0,0,0,0,0,0,0,0,0,0,0,0,0,0,0,0,0,0,0,0,0,0,0,0,0,0],"sum_hessian":[3.261673E2,3.10518E2,1.5649312E1,2.8513345E2,2.5384548E1,1.1092331E1,4.5569816E0,2.837135E2,1.4199468E0,2.2729248E1,2.6553006E0,4.99862E0,6.093711E0,3.3479588E0,1.209023E0,2.4589719E2,3.781632E1,1.8162107E1,4.56714E0,1.4888996E0,1.1664011E0,1.1998695E0,3.7987504E0,2.444437E2,1.4534956E0,3.6600918E1,1.2154001E0,8.2839155E0,9.878192E0,3.3574395E0,1.2097006E0,2.5636635E0,1.2350869E0,2.3987592E2,4.56778E0,3.464363E1,1.9572859E0,5.9629803E0,3.9152112E0,2.1958797E0,1.1615599E0,2.2486992E2,1.5005998E1,2.1493697E0,2.4184103E0,2.8774132E1,5.8695E0,4.537093E0,1.4258871E0,1.976283E2,2.7241621E1,1.0418652E1,4.587346E0,2.7047865E1,1.7262672E0,4.6356006E0,1.2338996E0,3.4081972E0,1.128896E0],"tree_param":{"num_deleted":"0","num_feature":"261","num_nodes":"59","size_leaf_vector":"0"}},{"base_weights":[6.603086E-2,1.5431382E-1,-1.5873206E-1,1.7765072E-1,-6.988696E-1,-2.2417206E-1,6.848033E-1,1.3933562E-1,6.448846E-1,-1.1577399E0,4.1751716E-1,-1.160355E-1,-5.8444583E-1,3.6995213E-2,8.788E-1,-0E0,2.2029905E-1,-2.5553024E-1,5.418447E-1,-4.0189907E-1,-1.154443E0,-5.2696444E-2,7.7960885E-1,2.8479767E-1,-3.7875432E-1,-1.4358024E-1,-9.367224E-1,-2.0487621E-1,-1.0803944E0,-0E0,-6.0402846E-1,7.13688E-1,1.3642682E-1,-3.494436E-2,-1.157305E0,-4.4977185E-1,6.4937405E-2,-5.800039E-1,9.3740064E-1,1.4465132E-1,-3.6352035E-1,-1.1639402E0,4.920092E-1,5.3382546E-1,1.236931E0,-1.02492586E-1,3.154698E-1,-7.8966856E-1,5.5660737E-1,-1.5432677E-1,-9.08685E-1,4.9378794E-1,-1.7794773E-1,-3.919681E-1,-9.6243435E-1,-1.0617822E-2,1.1826345E0,-2.2578211E-1,-1.0257488E0,4.155139E-1,1.0477908E0,-1.5282948E-1,6.7973876E-1,3.850036E-1,-1.7734785E-1,-1.2965288E0,3.3996117E-1,5.5659115E-1,7.267155E-2,-5.419092E-1,2.7726683E-1,-5.515305E-1,5.5696163E-2],"categories":[],"categories_nodes":[],"categories_segments":[],"categories_sizes":[],"default_left":[1,1,1,1,1,1,1,1,0,0,0,1,1,0,0,1,1,1,0,1,0,1,0,1,1,1,0,1,0,1,1,1,1,1,0,1,1,1,0,1,1,0,0,1,0,1,1,1,0,0,0,1,1,1,0,0,0,0,0,0,0,0,0,0,0,0,0,0,0,0,0,0,0],"id":9,"left_children":[1,3,5,7,9,11,13,15,-1,-1,-1,17,19,-1,-1,21,23,25,-1,27,-1,29,-1,31,33,35,-1,37,-1,39,41,43,45,47,-1,49,51,53,-1,55,57,-1,-1,59,-1,61,63,65,-1,-1,-1,67,69,71,-1,-1,-1,-1,-1,-1,-1,-1,-1,-1,-1,-1,-1,-1,-1,-1,-1,-1,-1],"loss_changes":[6.4985733E0,4.7081785E0,5.13381E0,3.822524E0,3.9559655E0,3.106608E0,5.6478953E-1,2.4159675E0,0E0,0E0,0E0,6.374171E0,1.0413032E0,0E0,0E0,3.3873916E0,5.353421E0,3.9599438E0,0E0,1.6372569E0,0E0,2.1715426E0,0E0,7.540435E0,3.2240014E0,3.3995261E0,0E0,6.8450775E0,0E0,3.818705E0,4.8646975E0,1.6889982E0,4.1045685E0,5.36873E0,0E0,2.4640527E0,3.4149368E0,6.747866E-2,0E0,8.616393E0,1.3005152E0,0E0,0E0,6.6771936E-1,0E0,1.5872067E0,2.0018373E0,3.8537393E0,0E0,0E0,0E0,1.08985186E-1,3.6115022E0,9.085963E-1,0E0,0E0,0E0,0E0,0E0,0E0,0E0,0E0,0E0,0E0,0E0,0E0,0E0,0E0,0E0,0E0,0E0,0E0,0E0],"parents":[2147483647,0,0,1,1,2,2,3,3,4,4,5,5,6,6,7,7,11,11,12,12,15,15,16,16,17,17,19,19,21,21,23,23,24,24,25,25,27,27,29,29,30,30,31,31,32,32,33,33,35,35,36,36,37,37,39,39,40,40,43,43,45,45,46,46,47,47,51,51,52,52,53,53],"right_children":[2,4,6,8,10,12,14,16,-1,-1,-1,18,20,-1,-1,22,24,26,-1,28,-1,30,-1,32,34,36,-1,38,-1,40,42,44,46,48,-1,50,52,54,-1,56,58,-1,-1,60,-1,62,64,66,-1,-1,-1,68,70,72,-1,-1,-1,-1,-1,-1,-1,-1,-1,-1,-1,-1,-1,-1,-1,-1,-1,-1,-1],"split_conditions":[9.15E1,5E-1,5E-1,9.05E1,8.8E1,1.015E2,5E-1,8.05E1,6.448846E-2,-1.1577399E-1,4.1751716E-2,9.95E1,5E-1,3.6995213E-3,8.788E-2,1.5E0,5E-1,9.75E1,5.4184474E-2,1.085E2,-1.154443E-1,5E-1,7.7960886E-2,8.25E1,8.55E1,9.35E1,-9.367224E-2,1.075E2,-1.0803944E-1,7.85E1,5E-1,5E-1,8.65E1,8.25E1,-1.157305E-1,9.25E1,9.45E1,1.045E2,9.374007E-2,7.65E1,5E-1,-1.1639402E-1,4.920092E-2,5E-1,1.236931E-1,5E-1,5E-1,4.5E0,5.5660736E-2,-1.5432677E-2,-9.08685E-2,5E-1,9.65E1,1.035E2,-9.624343E-2,-1.0617822E-3,1.18263446E-1,-2.2578212E-2,-1.02574885E-1,4.1551393E-2,1.0477908E-1,-1.52829485E-2,6.7973875E-2,3.850036E-2,-1.7734786E-2,-1.2965289E-1,3.3996116E-2,5.5659115E-2,7.2671548E-3,-5.4190923E-2,2.7726684E-2,-5.515305E-2,5.5696163E-3],"split_indices":[0,243,243,0,0,0,238,0,0,0,0,0,7,0,0,204,206,0,0,0,0,205,0,0,0,0,0,0,0,0,7,7,0,0,0,0,0,0,0,0,7,0,0,245,0,238,7,204,0,0,0,7,0,0,0,0,0,0,0,0,0,0,0,0,0,0,0,0,0,0,0,0,0],"split_type":[0,0,0,0,0,0,0,0,0,0,0,0,0,0,0,0,0,0,0,0,0,0,0,0,0,0,0,0,0,0,0,0,0,0,0,0,0,0,0,0,0,0,0,0,0,0,0,0,0,0,0,0,0,0,0,0,0,0,0,0,0,0,0,0,0,0,0,0,0,0,0,0,0],"sum_hessian":[3.2487823E2,2.3432706E2,9.055117E1,2.2929828E2,5.0287786E0,8.512481E1,5.4263644E0,2.1385428E2,1.5444007E1,3.6911042E0,1.3376744E0,6.722697E1,1.7897839E1,1.8767853E0,3.5495794E0,7.924359E1,1.3461069E2,5.638516E1,1.0841812E1,1.5438292E1,2.4595463E0,7.5219444E1,4.0241427E0,1.2247132E2,1.213936E1,4.9989594E1,6.395564E0,1.3460434E1,1.9778572E0,6.988594E1,5.3335075E0,2.9870005E1,9.260132E1,9.513254E0,2.6261067E0,2.01749E1,2.9814695E1,1.0742205E1,2.7182298E0,5.0351086E1,1.9534853E1,3.6318998E0,1.7016077E0,2.438859E1,5.481415E0,3.9289364E1,5.3311954E1,4.1892166E0,5.324037E0,1.3580304E1,6.5945954E0,1.0704304E1,1.911039E1,9.268601E0,1.4736029E0,4.4622932E1,5.728153E0,1.7815926E1,1.7189262E0,2.1984459E1,2.40413E0,3.8121384E1,1.1679795E0,4.739465E1,5.917306E0,2.9220984E0,1.2671185E0,8.462539E0,2.2417657E0,1.0797794E1,8.312596E0,7.039517E0,2.2290847E0],"tree_param":{"num_deleted":"0","num_feature":"261","num_nodes":"73","size_leaf_vector":"0"}},{"base_weights":[5.9416927E-2,8.518506E-2,-2.5797477E-1,1.2300596E-1,-1.5167105E-1,-1.1122949E0,-9.87338E-2,1.34664E-1,-9.017988E-1,-2.2553776E-1,5.52421E-1,4.7797698E-1,-3.4646264E-1,1.14251934E-1,8.11804E-1,-2.718992E-1,4.3577594E-1,1.5342607E-1,8.6964625E-1,-6.4497846E-1,2.2639577E-1,1.02237515E-1,8.9086604E-1,1.8193956E-1,9.429181E-1,-2.9338625E-1,-7.937771E-2,-6.771786E-1,6.1529994E-1,-8.3097106E-1,-0E0,6.787638E-1,-7.258835E-1,6.384243E-2,2.6490137E-1,-1.469383E-1,-1.132231E0,-5.93377E-1,4.2950508E-1,1.2725694E-1,8.358938E-1,8.693494E-2,-5.1665443E-1,3.8093054E-1,-6.2871474E-1,1.0990133E-1,-3.2086045E-1,-1.4152921E0,9.8743516E-1,-9.03713E-1,-2.39087E-1],"categories":[],"categories_nodes":[],"categories_segments":[],"categories_sizes":[],"default_left":[1,1,1,1,1,0,1,1,0,1,0,1,1,1,1,1,0,1,0,1,1,1,0,0,0,0,0,0,0,1,1,1,0,1,1,0,0,0,0,0,0,1,1,0,1,0,0,0,0,0,0],"id":10,"left_children":[1,3,5,7,9,-1,11,13,-1,15,-1,17,19,21,23,25,-1,27,-1,29,31,33,-1,-1,-1,-1,-1,-1,-1,35,37,39,-1,41,43,-1,-1,-1,-1,-1,-1,45,47,-1,49,-1,-1,-1,-1,-1,-1],"loss_changes":[2.6390162E0,2.7203681E0,2.8241806E0,3.0837584E0,2.2109313E0,0E0,3.2737691E0,3.2551289E0,0E0,1.2806246E0,0E0,4.4059134E-1,3.052953E0,2.0165586E0,9.6157074E-2,3.2087564E-2,0E0,2.590937E0,0E0,1.2281685E0,3.2316356E0,1.4729002E0,0E0,0E0,0E0,0E0,0E0,0E0,0E0,1.2449284E0,1.3233365E0,6.2430143E-2,0E0,2.7199612E0,5.051484E0,0E0,0E0,0E0,0E0,0E0,0E0,1.8666606E0,1.2156773E1,0E0,5.012703E-2,0E0,0E0,0E0,0E0,0E0,0E0],"parents":[2147483647,0,0,1,1,2,2,3,3,4,4,6,6,7,7,9,9,11,11,12,12,13,13,14,14,15,15,17,17,19,19,20,20,21,21,29,29,30,30,31,31,33,33,34,34,41,41,42,42,44,44],"right_children":[2,4,6,8,10,-1,12,14,-1,16,-1,18,20,22,24,26,-1,28,-1,30,32,34,-1,-1,-1,-1,-1,-1,-1,36,38,40,-1,42,44,-1,-1,-1,-1,-1,-1,46,48,-1,50,-1,-1,-1,-1,-1,-1],"split_conditions":[5E-1,5E-1,5E-1,4.5E0,5E-1,-1.11229494E-1,1.5E0,3.5E0,-9.017988E-2,4.5E0,5.52421E-2,5E-1,2.3E1,5E-1,5E-1,5E-1,4.3577593E-2,5E-1,8.696463E-2,5E-1,4.7E1,5E-1,8.908661E-2,1.8193956E-2,9.429181E-2,-2.9338626E-2,-7.937771E-3,-6.7717865E-2,6.1529994E-2,2.5E0,5E-1,3.75E1,-7.258835E-2,5E-1,5E-1,-1.4693829E-2,-1.132231E-1,-5.93377E-2,4.2950507E-2,1.2725695E-2,8.358938E-2,1.5E0,1.5E0,3.8093057E-2,5E-1,1.09901335E-2,-3.2086045E-2,-1.4152922E-1,9.874352E-2,-9.03713E-2,-2.39087E-2],"split_indices":[205,7,207,207,238,0,207,207,0,207,0,7,207,250,1,207,0,1,0,210,207,5,0,0,0,0,0,0,0,207,5,207,0,212,207,0,0,0,0,0,0,207,207,0,1,0,0,0,0,0,0],"split_type":[0,0,0,0,0,0,0,0,0,0,0,0,0,0,0,0,0,0,0,0,0,0,0,0,0,0,0,0,0,0,0,0,0,0,0,0,0,0,0,0,0,0,0,0,0,0,0,0,0,0,0],"sum_hessian":[3.235311E2,3.0077744E2,2.2753666E1,2.6077026E2,4.000717E1,2.199819E0,2.0553848E1,2.5910892E2,1.6613241E0,3.726804E1,2.7391334E0,5.53768E0,1.5016168E1,2.532466E2,5.862324E0,3.584012E1,1.4279189E0,4.2906547E0,1.2470255E0,1.0059505E1,4.9566627E0,2.5104279E2,2.2038107E0,1.8322432E0,4.0300813E0,3.0507923E1,5.332196E0,1.1399614E0,3.1506932E0,7.3618836E0,2.6976213E0,3.7720113E0,1.1846513E0,2.0569788E2,4.5344917E1,3.050544E0,4.31134E0,1.0846379E0,1.6129835E0,1.6707575E0,2.1012537E0,1.9922359E2,6.474278E0,4.0990807E1,4.3541136E0,1.9001207E2,9.211526E0,4.201247E0,2.2730308E0,1.2481925E0,3.1059213E0],"tree_param":{"num_deleted":"0","num_feature":"261","num_nodes":"51","size_leaf_vector":"0"}},{"base_weights":[5.314263E-2,8.684691E-2,-4.5073894E-1,7.164886E-2,7.230876E-1,-6.6200006E-1,3.7793115E-1,8.279309E-2,-1.0160733E0,5.8578122E-2,9.0280366E-1,-8.022816E-1,5.5298126E-1,-1.5299436E-2,8.341297E-1,1.05074085E-1,-3.140199E-1,-1.1096634E0,-1.7636116E-1,7.935611E-2,4.831537E-1,-6.6380984E-1,4.828656E-1,4.7152176E-1,-1.0711381E0,-1.8127865E-1,1.3326724E-1,8.8501036E-1,-0E0,-0E0,-1.1658486E0,8.2933754E-1,-0E0,3.376051E-2,7.535081E-1,-7.737035E-1,1.9224559E-1,9.381095E-1,1.04139954E-1,3.8907844E-1,-4.8537603E-1,-6.964378E-1,3.662477E-1,2.2559458E-1,-1.1115904E0,3.8044617E-1,-3.518411E-1,-5.614027E-1,1.3282706E-1,-0E0,6.745105E-1,6.674183E-2,-9.8998094E-1,-0E0,7.212447E-1],"categories":[],"categories_nodes":[],"categories_segments":[],"categories_sizes":[],"default_left":[1,1,1,1,1,1,1,1,0,0,0,1,0,0,0,1,1,0,1,1,1,1,1,1,0,1,1,0,1,1,0,0,0,0,0,1,1,0,1,1,1,0,1,0,0,0,0,0,0,0,0,0,0,0,0],"id":11,"left_children":[1,3,5,7,9,11,13,15,-1,-1,-1,17,-1,-1,-1,19,21,-1,23,25,27,29,31,33,-1,35,37,-1,39,41,-1,-1,-1,-1,-1,43,45,-1,47,49,51,-1,53,-1,-1,-1,-1,-1,-1,-1,-1,-1,-1,-1,-1],"loss_changes":[5.4518538E0,2.6863682E0,3.8756652E0,3.4968657E0,4.8379326E-1,3.4287095E0,1.0434418E0,2.6194181E0,0E0,0E0,0E0,2.4413128E0,0E0,0E0,0E0,2.5686584E0,4.7591157E0,0E0,4.713136E0,3.7738833E0,3.3035154E0,3.992013E0,1.0484664E0,3.4424984E-1,0E0,1.0401113E1,4.8507566E0,0E0,1.9321058E0,1.8046808E0,0E0,0E0,0E0,0E0,0E0,6.6363993E0,3.0996487E0,0E0,4.1233816E0,7.820402E-1,1.5683452E0,0E0,5.924342E-1,0E0,0E0,0E0,0E0,0E0,0E0,0E0,0E0,0E0,0E0,0E0,0E0],"parents":[2147483647,0,0,1,1,2,2,3,3,4,4,5,5,6,6,7,7,11,11,15,15,16,16,18,18,19,19,20,20,21,21,22,22,23,23,25,25,26,26,28,28,29,29,35,35,36,36,38,38,39,39,40,40,42,42],"right_children":[2,4,6,8,10,12,14,16,-1,-1,-1,18,-1,-1,-1,20,22,-1,24,26,28,30,32,34,-1,36,38,-1,40,42,-1,-1,-1,-1,-1,44,46,-1,48,50,52,-1,54,-1,-1,-1,-1,-1,-1,-1,-1,-1,-1,-1,-1],"split_conditions":[1.015E2,4.5E0,5E-1,4.5E0,8.6E1,5E-1,5E-1,1.5E0,-1.0160734E-1,5.8578122E-3,9.028037E-2,1.075E2,5.5298127E-2,-1.5299435E-3,8.341297E-2,1.5E0,1.15E1,-1.1096634E-1,1.085E2,7.65E1,8.25E1,5E-1,7.8E1,5E-1,-1.07113816E-1,5E-1,7.85E1,8.8501036E-2,5E-1,5E-1,-1.1658486E-1,8.2933754E-2,-0E0,3.376051E-3,7.535081E-2,4.85E1,6.75E1,9.381095E-2,7.95E1,9.2E1,8.55E1,-6.964378E-2,9.55E1,2.2559458E-2,-1.1115904E-1,3.8044617E-2,-3.518411E-2,-5.614027E-2,1.3282706E-2,-0E0,6.745105E-2,6.674183E-3,-9.899809E-2,-0E0,7.2124474E-2],"split_indices":[0,246,3,251,0,238,209,208,0,0,0,0,0,0,0,251,208,0,0,0,0,209,0,6,0,1,0,0,1,1,0,0,0,0,0,0,0,0,0,0,0,0,0,0,0,0,0,0,0,0,0,0,0,0,0],"split_type":[0,0,0,0,0,0,0,0,0,0,0,0,0,0,0,0,0,0,0,0,0,0,0,0,0,0,0,0,0,0,0,0,0,0,0,0,0,0,0,0,0,0,0,0,0,0,0,0,0,0,0,0,0,0,0],"sum_hessian":[3.2240964E2,3.0359192E2,1.881773E1,2.9819687E2,5.3950424E0,1.5427649E1,3.390081E0,2.9649762E2,1.6992604E0,1.7833253E0,3.6117172E0,1.4380638E1,1.0470109E0,2.1492422E0,1.2408388E0,2.821663E2,1.4331332E1,8.754554E0,5.626084E0,2.6617355E2,1.599272E1,1.0316887E1,4.014445E0,3.4304364E0,2.1956475E0,4.4339718E1,2.2183385E2,8.1418495E0,7.8508706E0,4.846174E0,5.4707136E0,2.0920324E0,1.9224125E0,2.217767E0,1.2126694E0,1.6907457E1,2.7432259E1,6.1400776E0,2.1569377E2,4.5345693E0,3.3163013E0,1.1731153E0,3.6730583E0,4.186077E0,1.2721381E1,2.099162E1,6.44064E0,7.6320124E0,2.0806175E2,2.10758E0,2.4269893E0,1.8442469E0,1.4720545E0,2.4776182E0,1.1954402E0],"tree_param":{"num_deleted":"0","num_feature":"261","num_nodes":"55","size_leaf_vector":"0"}},{"base_weights":[4.8165493E-2,1.3521004E-1,-4.7147E-1,1.608241E-1,-8.3062774E-1,-7.5459385E-1,-9.527845E-3,8.208811E-2,4.7852796E-1,5.242764E-1,-1.1997392E0,-1.2438788E0,-1.0998779E-1,1.8691026E-1,-6.428248E-1,1.4926437E-1,-4.4903088E-1,5.7604694E-1,-1.1018162E0,-1.4764934E0,5.1308796E-2,3.835473E-1,-1.3299192E0,-9.4925755E-1,4.0481126E-1,-1.2857695E0,4.5335725E-1,1.7131504E-1,-1.1804103E0,-7.3288506E-1,3.9994285E-1,-3.2962832E-1,6.5074664E-1,-1.7673707E0,-1.10450804E-1,-3.4911758E-1,8.220271E-1,8.0948025E-2,8.1968796E-1,1.4471002E-1,1.0263633E0,-1.4228182E-1,-1.4920002E0,-0E0,5.8900976E-1,5.9123075E-1,-1.1258669E0,1.0196685E0,4.1815746E-1,3.4172288E-1,-9.89758E-1,1.0570166E0,3.961501E-2,4.246006E-1,-1.0054597E0,1.5749112E-1,-8.2488805E-1,-1.1381408E0,1.9208248E-1,2.1579085E-2,1.1236111E0,1.1352795E0,1.5361342E-1,2.3286496E-1,1.25628E0,-0E0,8.876828E-1,1.6903843E-1,-7.2430617E-1,7.7664083E-1,-4.3625584E-1,4.6089602E-1,1.3746506E0,-2.6588142E-1,7.0494777E-1,8.332457E-1,-4.3328992E-1],"categories":[],"categories_nodes":[],"categories_segments":[],"categories_sizes":[],"default_left":[1,1,1,1,1,1,1,1,1,0,0,1,1,1,1,1,1,1,0,1,0,1,0,0,1,0,0,1,0,1,1,1,1,0,0,1,1,1,0,1,0,1,0,0,0,0,0,1,1,0,0,1,0,1,0,1,0,0,1,0,1,0,1,0,0,1,0,0,0,0,0,0,0,0,0,0,0],"id":12,"left_children":[1,3,5,7,9,11,13,15,17,-1,-1,19,21,23,25,27,29,31,-1,33,-1,35,-1,-1,37,-1,-1,39,-1,41,43,45,47,-1,-1,49,51,53,-1,55,-1,57,-1,-1,-1,-1,-1,59,61,-1,-1,63,-1,65,-1,67,-1,-1,69,-1,71,-1,73,-1,-1,75,-1,-1,-1,-1,-1,-1,-1,-1,-1,-1,-1],"loss_changes":[1.4572303E1,6.8563447E0,5.8300877E0,6.6048517E0,4.479459E0,8.402071E0,2.6305597E0,7.843279E0,8.805612E0,0E0,0E0,5.1813717E0,9.109146E0,4.084082E0,4.492446E0,5.74686E0,6.350378E0,3.7813797E0,0E0,4.670473E0,0E0,3.8530388E0,0E0,0E0,1.5448904E0,0E0,0E0,3.950439E0,0E0,7.8732004E0,5.3061616E-1,4.1732755E0,3.2203312E0,0E0,0E0,2.5949407E0,9.944992E-1,3.8769243E0,0E0,2.345811E0,0E0,4.5680456E0,0E0,0E0,0E0,0E0,0E0,1.4677124E0,5.48124E0,0E0,0E0,1.3459206E-1,0E0,1.4812362E0,0E0,1.9322143E0,0E0,0E0,4.1601124E0,0E0,1.3289242E0,0E0,6.069463E0,0E0,0E0,2.5155056E0,0E0,0E0,0E0,0E0,0E0,0E0,0E0,0E0,0E0,0E0,0E0],"parents":[2147483647,0,0,1,1,2,2,3,3,4,4,5,5,6,6,7,7,8,8,11,11,12,12,13,13,14,14,15,15,16,16,17,17,19,19,21,21,24,24,27,27,29,29,30,30,31,31,32,32,35,35,36,36,37,37,39,39,41,41,47,47,48,48,51,51,53,53,55,55,58,58,60,60,62,62,65,65],"right_children":[2,4,6,8,10,12,14,16,18,-1,-1,20,22,24,26,28,30,32,-1,34,-1,36,-1,-1,38,-1,-1,40,-1,42,44,46,48,-1,-1,50,52,54,-1,56,-1,58,-1,-1,-1,-1,-1,60,62,-1,-1,64,-1,66,-1,68,-1,-1,70,-1,72,-1,74,-1,-1,76,-1,-1,-1,-1,-1,-1,-1,-1,-1,-1,-1],"split_conditions":[5.113636E-1,5E-1,1.8541667E0,1.03913635E-1,5.95E1,8.95E1,9.05E1,5E-1,5E-1,5.242764E-2,-1.1997392E-1,1.3E0,9.5E-1,7.7E1,5E-1,7.846154E-2,5E-1,6.6E1,-1.1018162E-1,5E-1,5.1308796E-3,6.794872E-1,-1.3299192E-1,-9.4925754E-2,8.75E1,-1.2857695E-1,4.5335725E-2,5.8757063E-2,-1.1804103E-1,8.75E1,8.85E1,1.7142858E-1,8.25E1,-1.7673707E-1,-1.1045081E-2,5.8571434E-1,5E-1,8.55E1,8.19688E-2,5E-1,1.0263633E-1,7.75E1,-1.4920002E-1,-0E0,5.890098E-2,5.9123076E-2,-1.1258669E-1,1.4718616E-1,1.34375E-1,3.417229E-2,-9.89758E-2,9.65E1,3.961501E-3,5E-1,-1.00545965E-1,1.085E2,-8.2488805E-2,-1.1381408E-1,5E-1,2.1579086E-3,5E-1,1.1352795E-1,5E-1,2.3286497E-2,1.25628E-1,1.9375E0,8.876828E-2,1.6903844E-2,-7.243062E-2,7.7664085E-2,-4.3625586E-2,4.60896E-2,1.3746506E-1,-2.6588142E-2,7.049478E-2,8.3324574E-2,-4.3328993E-2],"split_indices":[226,210,226,226,0,0,0,7,206,0,0,226,226,0,210,226,251,0,0,6,0,226,0,0,0,0,0,226,0,0,0,226,0,0,0,226,1,0,0,211,0,0,0,0,0,0,0,226,226,0,0,0,0,206,0,0,0,0,1,0,1,0,251,0,0,226,0,0,0,0,0,0,0,0,0,0,0],"split_type":[0,0,0,0,0,0,0,0,0,0,0,0,0,0,0,0,0,0,0,0,0,0,0,0,0,0,0,0,0,0,0,0,0,0,0,0,0,0,0,0,0,0,0,0,0,0,0,0,0,0,0,0,0,0,0,0,0,0,0,0,0,0,0,0,0,0,0,0,0,0,0,0,0,0,0,0,0],"sum_hessian":[3.2113937E2,2.7623578E2,4.4903603E1,2.7032574E2,5.910026E0,2.7033422E1,1.787018E1,2.1847775E2,5.1848003E1,1.0123227E0,4.897703E0,1.4513546E1,1.25198765E1,1.3983735E1,3.8864455E0,1.9513092E2,2.3346823E1,4.9701817E1,2.1461868E0,1.2325025E1,2.1885211E0,9.353582E0,3.1662934E0,1.4175364E0,1.2566198E1,2.462585E0,1.4238605E0,1.9316104E2,1.9698812E0,1.7840437E1,5.506385E0,3.2199888E0,4.6481827E1,9.71979E0,2.605234E0,3.3801045E0,5.9734783E0,8.201009E0,4.36519E0,1.8897647E2,4.1845756E0,1.1020538E1,6.819899E0,2.0849354E0,3.4214497E0,1.4908231E0,1.7291657E0,1.5987532E1,3.0494295E1,1.7079725E0,1.672132E0,4.024169E0,1.9493091E0,6.960411E0,1.2405975E0,1.8776431E2,1.2121558E0,2.2329655E0,8.787573E0,1.8714638E0,1.4116068E1,6.8986816E0,2.3595615E1,1.5344933E0,2.489676E0,4.4135666E0,2.5468445E0,1.8657455E2,1.1897562E0,4.6117744E0,4.1757984E0,5.086719E0,9.029348E0,1.3495285E1,1.0100329E1,1.2406386E0,3.1729279E0],"tree_param":{"num_deleted":"0","num_feature":"261","num_nodes":"77","size_leaf_vector":"0"}},{"base_weights":[4.172637E-2,1.2132996E-1,-4.3394285E-1,4.891942E-2,4.2014763E-1,-6.919078E-1,-1.1398122E-2,6.625879E-2,-1.1095254E0,6.674598E-1,1.2619963E-2,-1.1407853E0,-9.8270655E-2,-2.9614818E-1,6.979611E-1,8.9860864E-2,-7.067347E-1,8.13299E-1,-4.128044E-1,-2.9324874E-1,9.637149E-1,-1.3573881E0,4.7999255E-2,3.616992E-1,-1.2452252E0,-0E0,-1.2305349E0,9.903789E-1,5.0738364E-2,5.3625964E-2,5.238305E-1,-1.0731382E0,3.4041408E-1,9.2637604E-1,-1.4367875E-1,-1.0066534E0,3.8333136E-1,-8.218814E-1,2.7496946E-1,-3.278303E-1,7.7516747E-1,2.929658E-1,-9.942765E-1,8.2384594E-2,-1.0790902E0,8.2056767E-1,-3.557807E-1,9.9278075E-1,2.661921E-1,-9.748993E-1,7.521104E-1,-1.2312275E0,8.4351146E-1,6.5499365E-1,-0E0,3.3204857E-1,-9.4743824E-1,1.1663607E0,2.1698937E-1,-2.712207E-1,1.0164051E0,5.7007298E-2,9.413378E-1,-0E0,1.0170705E0,2.3238634E-1,-8.3371264E-1,6.3186383E-1,-1.3890907E-2,-1.5799745E0,2.5661108E-1,-9.2060775E-1,4.2696556E-1,-2.2630688E-2,5.8921176E-1,7.9465675E-1,-7.372259E-1,-6.84911E-3,3.845886E-1,6.559237E-1,-7.2469544E-1,1.9525255E-1,1.0939925E0,7.132833E-2,5.8932966E-1,2.7978405E-1,-1.3694158E0],"categories":[],"categories_nodes":[],"categories_segments":[],"categories_sizes":[],"default_left":[1,1,1,1,1,1,1,1,0,1,1,1,1,1,1,1,1,1,1,1,0,0,0,1,0,1,0,0,0,1,1,0,0,1,1,0,0,1,1,1,1,1,0,1,0,1,1,0,1,0,0,1,0,0,1,0,0,0,1,1,0,1,0,1,1,0,0,0,0,0,0,0,1,0,0,0,1,0,0,0,0,0,0,0,0,0,0],"id":13,"left_children":[1,3,5,7,9,11,13,15,-1,17,19,21,23,25,27,29,31,33,35,37,-1,-1,-1,39,-1,41,-1,-1,-1,43,45,-1,-1,47,49,-1,-1,51,53,55,57,59,-1,61,-1,63,65,-1,67,-1,-1,69,-1,-1,71,-1,-1,-1,73,75,-1,77,-1,79,81,-1,-1,-1,-1,-1,-1,-1,83,-1,-1,-1,85,-1,-1,-1,-1,-1,-1,-1,-1,-1,-1],"loss_changes":[1.2130193E1,5.833384E0,4.8063793E0,4.3332634E0,5.1650143E0,7.029505E0,3.9747002E0,3.9787369E0,0E0,5.6389704E0,6.800374E0,4.427084E0,7.95171E0,4.257434E0,7.2661996E-1,3.2365427E0,3.0808187E0,3.529295E0,2.732096E0,5.5416756E0,0E0,0E0,0E0,3.4109898E0,0E0,3.768711E0,0E0,0E0,0E0,6.446932E0,4.6597867E0,0E0,0E0,5.353794E-1,3.843004E0,0E0,0E0,7.739542E0,1.0427123E0,2.3931684E0,9.114318E-1,4.7827005E0,0E0,4.015171E0,0E0,2.1830378E0,1.6975636E0,0E0,6.1741674E-1,0E0,0E0,5.040948E0,0E0,0E0,2.9567788E0,0E0,0E0,0E0,5.753585E-1,3.9792364E0,0E0,4.1654434E0,0E0,2.2368546E0,7.275772E-2,0E0,0E0,0E0,0E0,0E0,0E0,0E0,6.535339E-2,0E0,0E0,0E0,4.201E0,0E0,0E0,0E0,0E0,0E0,0E0,0E0,0E0,0E0,0E0],"parents":[2147483647,0,0,1,1,2,2,3,3,4,4,5,5,6,6,7,7,9,9,10,10,11,11,12,12,13,13,14,14,15,15,16,16,17,17,18,18,19,19,23,23,25,25,29,29,30,30,33,33,34,34,37,37,38,38,39,39,40,40,41,41,43,43,45,45,46,46,48,48,51,51,54,54,58,58,59,59,61,61,63,63,64,64,72,72,76,76],"right_children":[2,4,6,8,10,12,14,16,-1,18,20,22,24,26,28,30,32,34,36,38,-1,-1,-1,40,-1,42,-1,-1,-1,44,46,-1,-1,48,50,-1,-1,52,54,56,58,60,-1,62,-1,64,66,-1,68,-1,-1,70,-1,-1,72,-1,-1,-1,74,76,-1,78,-1,80,82,-1,-1,-1,-1,-1,-1,-1,84,-1,-1,-1,86,-1,-1,-1,-1,-1,-1,-1,-1,-1,-1],"split_conditions":[5.113636E-1,1.03913635E-1,1.8541667E0,7.846154E-2,2.979592E-1,8.95E1,5E-1,5E-1,-1.1095255E-1,5E-1,1.5E0,1.3E0,9.5E-1,3.1666665E0,5E-1,5E-1,7E0,9.25E1,2.5E0,4.705596E-1,9.6371494E-2,-1.3573882E-1,4.7999257E-3,6.794872E-1,-1.2452252E-1,9.1E1,-1.2305349E-1,9.903789E-2,5.0738365E-3,1.5E0,8.75E1,-1.0731383E-1,3.404141E-2,5E-1,5E-1,-1.00665346E-1,3.8333137E-2,1.5E0,8.25E1,9.05E1,7.563844E-1,8.75E1,-9.9427655E-2,5.8757063E-2,-1.07909024E-1,7.3E1,5E-1,9.927808E-2,1.6E-1,-9.748993E-2,7.521104E-2,5E-1,8.4351145E-2,6.5499365E-2,8.65E1,3.3204857E-2,-9.4743825E-2,1.16636075E-1,1.5E0,1.9375E0,1.01640515E-1,5E-1,9.413379E-2,5.8E1,7.9E1,2.3238635E-2,-8.337127E-2,6.3186385E-2,-1.3890908E-3,-1.5799746E-1,2.5661109E-2,-9.2060775E-2,5E-1,-2.263069E-3,5.8921177E-2,7.946568E-2,8.15E1,-6.8491104E-4,3.845886E-2,6.559237E-2,-7.246955E-2,1.9525256E-2,1.0939925E-1,7.132833E-3,5.8932967E-2,2.7978405E-2,-1.3694158E-1],"split_indices":[226,226,226,226,226,0,207,210,0,207,251,226,226,226,205,204,209,0,247,226,0,0,0,226,0,0,0,0,0,208,0,0,0,247,209,0,0,209,0,0,226,0,0,226,0,0,205,0,226,0,0,239,0,0,0,0,0,0,247,226,0,5,0,0,0,0,0,0,0,0,0,0,5,0,0,0,0,0,0,0,0,0,0,0,0,0,0],"split_type":[0,0,0,0,0,0,0,0,0,0,0,0,0,0,0,0,0,0,0,0,0,0,0,0,0,0,0,0,0,0,0,0,0,0,0,0,0,0,0,0,0,0,0,0,0,0,0,0,0,0,0,0,0,0,0,0,0,0,0,0,0,0,0,0,0,0,0,0,0,0,0,0,0,0,0,0,0,0,0,0,0,0,0,0,0,0,0],"sum_hessian":[3.1954932E2,2.749549E2,4.4594414E1,2.231206E2,5.183429E1,2.6847376E1,1.7747038E1,2.2115753E2,1.9630699E0,3.1400024E1,2.0434263E1,1.4418042E1,1.2429334E1,1.3413896E1,4.3331423E0,2.1594783E2,5.2096915E0,2.813032E1,3.2697048E0,1.58909445E1,4.5433187E0,1.2229812E1,2.1882308E0,9.302359E0,3.1269748E0,1.0955813E1,2.4580824E0,2.280362E0,2.0527804E0,2.0108253E2,1.4865305E1,4.0140963E0,1.1955954E0,2.5425627E1,2.7046936E0,1.8708892E0,1.3988156E0,8.182633E0,7.7083116E0,3.353584E0,5.9487743E0,9.250939E0,1.704874E0,1.9740405E2,3.678479E0,1.1388242E1,3.4770627E0,2.220854E1,3.2170858E0,1.4926975E0,1.211996E0,6.9398117E0,1.2428216E0,2.800436E0,4.9078755E0,1.6983204E0,1.6552637E0,2.4654803E0,3.4832942E0,5.4248333E0,3.826106E0,1.9326485E2,4.139209E0,2.2839487E0,9.104293E0,1.6006525E0,1.8764101E0,1.1287786E0,2.0883074E0,5.697941E0,1.2418705E0,1.2421364E0,3.6657395E0,2.3961563E0,1.0871379E0,1.2296103E0,4.1952233E0,1.6208154E2,3.1183302E1,1.1494877E0,1.1344609E0,1.4208E0,7.683493E0,2.1729968E0,1.4927425E0,1.7129911E0,2.482232E0],"tree_param":{"num_deleted":"0","num_feature":"261","num_nodes":"87","size_leaf_vector":"0"}},{"base_weights":[3.7920803E-2,1.106301E-1,-3.9848706E-1,4.3651193E-2,3.8943446E-1,-6.3542163E-1,-8.9827655E-3,6.002631E-2,-1.0469723E0,2.3729308E-1,1.045812E0,-1.0466193E0,-8.884897E-2,-8.641815E-1,1.0493681E-1,8.173772E-2,-6.661081E-1,5.3177977E-1,-2.607662E-1,-1.2495092E0,4.490341E-2,3.4134308E-1,-1.1720874E0,3.5782894E-1,-5.488706E-1,1.317792E-1,-1.619013E-1,3.348756E-1,-1.0277272E0,6.769006E-1,-3.598963E-1,-7.4747336E-1,2.5708476E-1,-1.528804E0,-9.732625E-3,-3.0812663E-1,7.3306847E-1,1.4106381E-1,8.862059E-1,-1.1393573E0,4.2841804E-1,1.6680163E-1,-1.1372285E0,-2.7889183E-1,4.4301862E-1,4.2862105E-1,1.0175304E0,7.1978074E-1,-1.0781006E0,-1.097459E0,3.827435E-1,6.152255E-1,-0E0,3.146118E-1,-9.0231353E-1,9.613719E-1,-0E0,5.100955E-1,-1.8355845E-1,-1.6216746E-2,2.3273464E-1,-9.54435E-2,-1.2784965E0,-1.6151233E-1,9.1048825E-1,-3.1844784E-2,1.0043985E0,1.2363002E0,3.3938892E-2,-1.4431735E0,2.4477445E-1,-8.74763E-1,4.0625048E-1,1.9924994E-1,1.140627E0,-0E0,7.636125E-1,6.2290925E-1,-1.2103374E0,2.7287874E-1,-3.9092013E-1,1.9653445E-1,1.0466555E0,-9.8254114E-1,-0E0,-8.024717E-1,5.168265E-1,2.853997E-1,-1.0737727E0],"categories":[],"categories_nodes":[],"categories_segments":[],"categories_sizes":[],"default_left":[1,1,1,1,1,1,1,1,0,1,0,1,1,0,1,1,1,1,1,1,0,1,0,1,1,1,1,0,0,1,1,1,1,0,0,1,1,1,0,0,0,1,0,1,1,1,1,0,0,1,0,0,1,0,0,1,0,1,1,1,1,1,0,1,0,1,0,0,0,0,0,0,0,0,0,0,0,0,0,0,0,0,0,0,0,0,0,0,0],"id":14,"left_children":[1,3,5,7,9,11,13,15,-1,17,-1,19,21,-1,23,25,27,29,31,33,-1,35,-1,37,39,41,43,-1,-1,45,47,49,51,-1,-1,53,55,57,-1,-1,-1,59,-1,61,63,65,67,-1,-1,69,-1,-1,71,-1,-1,73,-1,75,77,79,81,83,-1,85,-1,87,-1,-1,-1,-1,-1,-1,-1,-1,-1,-1,-1,-1,-1,-1,-1,-1,-1,-1,-1,-1,-1,-1,-1],"loss_changes":[1.0092375E1,4.998892E0,4.0107403E0,3.8196495E0,4.605494E0,5.8384714E0,2.1245527E0,3.411676E0,0E0,6.736165E0,0E0,3.7914677E0,6.9698095E0,0E0,3.0567842E0,2.6576152E0,2.8406467E0,4.068406E0,4.6282177E0,4.1919327E0,0E0,3.0264974E0,0E0,1.1409416E0,3.6703906E0,8.034674E0,2.6957872E0,0E0,0E0,1.2486372E0,4.542076E0,4.3613105E0,9.1423875E-1,0E0,0E0,2.1609771E0,9.6717954E-1,1.5530987E0,0E0,0E0,0E0,2.2004676E0,0E0,5.3290043E0,2.071983E0,4.812457E0,1.6414146E0,0E0,0E0,4.2408485E0,0E0,0E0,2.668745E0,0E0,0E0,9.849644E-2,0E0,6.432935E-1,6.4818525E0,5.262402E0,3.3188963E0,2.5437832E0,0E0,2.0569339E0,0E0,4.0083365E0,0E0,0E0,0E0,0E0,0E0,0E0,0E0,0E0,0E0,0E0,0E0,0E0,0E0,0E0,0E0,0E0,0E0,0E0,0E0,0E0,0E0,0E0,0E0],"parents":[2147483647,0,0,1,1,2,2,3,3,4,4,5,5,6,6,7,7,9,9,11,11,12,12,14,14,15,15,16,16,17,17,18,18,19,19,21,21,23,23,24,24,25,25,26,26,29,29,30,30,31,31,32,32,35,35,36,36,37,37,41,41,43,43,44,44,45,45,46,46,49,49,52,52,55,55,57,57,58,58,59,59,60,60,61,61,63,63,65,65],"right_children":[2,4,6,8,10,12,14,16,-1,18,-1,20,22,-1,24,26,28,30,32,34,-1,36,-1,38,40,42,44,-1,-1,46,48,50,52,-1,-1,54,56,58,-1,-1,-1,60,-1,62,64,66,68,-1,-1,70,-1,-1,72,-1,-1,74,-1,76,78,80,82,84,-1,86,-1,88,-1,-1,-1,-1,-1,-1,-1,-1,-1,-1,-1,-1,-1,-1,-1,-1,-1,-1,-1,-1,-1,-1,-1],"split_conditions":[5.113636E-1,1.03913635E-1,1.8541667E0,7.846154E-2,1.5E0,8.95E1,7.7E1,5E-1,-1.0469723E-1,2.979592E-1,1.045812E-1,1.3E0,9.5E-1,-8.641815E-2,9.05E1,9.55E1,6.2E1,9.25E1,4.705596E-1,5E-1,4.490341E-3,6.794872E-1,-1.1720874E-1,5E-1,1E0,5E-1,5E-1,3.3487562E-2,-1.0277273E-1,2.1637428E-1,1.1385607E-1,5E-1,8.25E1,-1.528804E-1,-9.7326253E-4,5.8571434E-1,5E-1,2.3392859E0,8.8620596E-2,-1.1393573E-1,4.2841803E-2,7.95E1,-1.1372285E-1,5E-1,5E-1,8.75E1,8.55E1,7.197808E-2,-1.0781006E-1,5E-1,3.827435E-2,6.152255E-2,8.65E1,3.146118E-2,-9.023135E-2,9.65E1,-0E0,8.75E1,8.15E1,6.75E1,5.8757063E-2,9.65E1,-1.2784965E-1,1E0,9.104883E-2,8.45E1,1.0043985E-1,1.23630024E-1,3.3938892E-3,-1.4431736E-1,2.4477445E-2,-8.7476306E-2,4.0625047E-2,1.9924995E-2,1.14062704E-1,-0E0,7.6361254E-2,6.2290926E-2,-1.2103374E-1,2.7287874E-2,-3.9092015E-2,1.9653445E-2,1.04665555E-1,-9.8254114E-2,-0E0,-8.024717E-2,5.168265E-2,2.853997E-2,-1.0737727E-1],"split_indices":[226,226,226,226,251,0,0,210,0,226,0,226,226,0,0,0,0,0,226,6,0,226,0,246,208,243,246,0,0,226,226,208,0,0,0,226,1,226,0,0,0,0,0,251,1,0,0,0,0,239,0,0,0,0,0,0,0,0,0,0,226,0,0,239,0,0,0,0,0,0,0,0,0,0,0,0,0,0,0,0,0,0,0,0,0,0,0,0,0],"split_type":[0,0,0,0,0,0,0,0,0,0,0,0,0,0,0,0,0,0,0,0,0,0,0,0,0,0,0,0,0,0,0,0,0,0,0,0,0,0,0,0,0,0,0,0,0,0,0,0,0,0,0,0,0,0,0,0,0,0,0,0,0,0,0,0,0,0,0,0,0,0,0,0,0,0,0,0,0,0,0,0,0,0,0,0,0,0,0,0,0],"sum_hessian":[3.174621E2,2.733828E2,4.407927E1,2.2227007E2,5.1112755E1,2.6537247E1,1.7542023E1,2.2032518E2,1.9448816E0,4.3130306E1,7.9824486E0,1.4256528E1,1.228072E1,1.3910223E0,1.6151E1,2.1529701E2,5.0281677E0,2.736874E1,1.5761567E1,1.2068592E1,2.1879349E0,9.212992E0,3.067728E0,1.231369E1,3.8373091E0,1.7991997E2,3.5377045E1,1.174498E0,3.85367E0,2.4027637E1,3.341102E0,8.099676E0,7.6618905E0,9.456781E0,2.611811E0,3.3224142E0,5.8905773E0,1.0145178E1,2.1685123E0,2.4274373E0,1.4098719E0,1.7629384E2,3.6261356E0,3.0532198E1,4.8448467E0,1.5889763E1,8.137876E0,1.1945739E0,2.146528E0,6.380006E0,1.7196707E0,2.7628384E0,4.899052E0,1.6924827E0,1.6299313E0,3.9692216E0,1.9213557E0,4.787377E0,5.357801E0,4.5925594E1,1.3036824E2,2.7119822E1,3.4123766E0,2.2219832E0,2.6228633E0,9.217609E0,6.6721535E0,6.1970506E0,1.9408247E0,5.149643E0,1.2303628E0,1.2394948E0,3.6595573E0,1.5038708E0,2.4653506E0,2.2124195E0,2.5749574E0,3.128832E0,2.2289689E0,2.5731688E1,2.0193907E1,1.2653725E2,3.830993E0,1.7022156E0,2.5417606E1,1.2190558E0,1.0029275E0,7.5501223E0,1.6674867E0],"tree_param":{"num_deleted":"0","num_feature":"261","num_nodes":"89","size_leaf_vector":"0"}},{"base_weights":[3.3300217E-2,9.984614E-2,-3.6892667E-1,3.7396643E-2,3.6301428E-1,-5.884513E-1,-7.762855E-3,5.2856162E-2,-9.9124736E-1,4.4561535E-1,-9.469259E-1,-7.865907E-1,-1.9523924E-2,-2.6735866E-1,6.3683E-1,7.280631E-2,-6.286808E-1,3.1096226E-1,9.8980474E-1,-3.269512E-1,-1.423654E0,-9.4606555E-1,3.715489E-1,-0E0,-1.1030163E0,9.094825E-1,3.8292278E-2,8.659038E-2,-9.0794295E-1,-9.852194E-1,3.2380876E-1,4.830092E-1,-7.783824E-1,1.0586153E0,1.5285103E-1,-8.210006E-1,2.0803766E-1,9.931038E-2,7.1116E-1,2.1711308E-1,-8.949779E-1,5.243904E-2,5.037746E-1,6.964687E-1,-0E0,-1.2645565E0,2.1249427E-1,1.6980356E-1,-1.245905E0,5.402774E-1,-6.223918E-1,-1.7585443E-1,5.6450474E-1,7.591312E-1,2.5048058E-2,7.786184E-2,-1.0113931E0,8.899794E-1,-3.1119294E-2,4.3263742E-1,1.1308571E0,-3.617572E-1,3.6605504E-1,2.0647344E-1,8.1641173E-1,-2.9573092E-1,2.7478835E-1,5.5913657E-2,8.2544684E-1,3.2045346E-1,1.1457075E0,-5.1832336E-1,7.5435156E-1,7.920776E-1,-1.02930434E-1,7.048491E-2,-1.000066E0,1.1986631E-1,6.3559836E-1,7.832164E-1,-1.9471754E-1,-1.009848E0,6.859647E-1,6.160885E-1,1.5064999E-2],"categories":[],"categories_nodes":[],"categories_segments":[],"categories_sizes":[],"default_left":[1,1,1,1,1,1,1,1,0,1,0,1,1,1,1,1,1,1,1,1,0,0,1,1,0,0,0,1,0,0,0,1,1,0,0,1,1,1,0,1,0,1,1,1,1,0,0,0,0,1,0,0,0,0,1,1,0,1,1,1,0,1,1,1,0,1,1,0,0,0,0,0,0,0,0,0,0,0,0,0,0,0,0,0,0],"id":15,"left_children":[1,3,5,7,9,11,13,15,-1,17,-1,19,21,23,25,27,29,31,33,35,-1,-1,37,39,-1,-1,-1,41,-1,-1,-1,43,45,-1,-1,47,49,51,-1,53,-1,55,57,59,61,-1,-1,-1,-1,63,-1,-1,-1,-1,65,67,-1,69,71,73,-1,75,77,79,-1,81,83,-1,-1,-1,-1,-1,-1,-1,-1,-1,-1,-1,-1,-1,-1,-1,-1,-1,-1],"loss_changes":[8.442337E0,4.367802E0,3.3830504E0,3.36854E0,5.9451804E0,2.8580017E0,3.2100294E0,2.9168708E0,0E0,2.9230413E0,0E0,4.829464E0,3.6850305E0,3.3743215E0,6.015086E-1,2.8071914E0,2.6010735E0,8.191557E0,1.4063835E-2,3.8847857E0,0E0,0E0,3.3448625E-1,2.4391448E0,0E0,0E0,0E0,2.8812928E0,0E0,0E0,0E0,3.9213266E0,3.4509244E0,0E0,0E0,3.6476378E0,2.3474984E0,9.250115E-1,0E0,8.939536E-1,0E0,5.267581E0,3.4532135E0,1.9849768E0,1.7860148E0,0E0,0E0,0E0,0E0,8.979678E-2,0E0,0E0,0E0,0E0,8.512791E-1,2.9497867E0,0E0,5.5061436E-1,3.2396379E0,3.8095202E0,0E0,2.250291E0,1.500603E-1,1.4191785E0,0E0,3.9176672E0,3.9725962E-1,0E0,0E0,0E0,0E0,0E0,0E0,0E0,0E0,0E0,0E0,0E0,0E0,0E0,0E0,0E0,0E0,0E0,0E0],"parents":[2147483647,0,0,1,1,2,2,3,3,4,4,5,5,6,6,7,7,9,9,11,11,12,12,13,13,14,14,15,15,16,16,17,17,18,18,19,19,22,22,23,23,27,27,31,31,32,32,35,35,36,36,37,37,39,39,41,41,42,42,43,43,44,44,49,49,54,54,55,55,57,57,58,58,59,59,61,61,62,62,63,63,65,65,66,66],"right_children":[2,4,6,8,10,12,14,16,-1,18,-1,20,22,24,26,28,30,32,34,36,-1,-1,38,40,-1,-1,-1,42,-1,-1,-1,44,46,-1,-1,48,50,52,-1,54,-1,56,58,60,62,-1,-1,-1,-1,64,-1,-1,-1,-1,66,68,-1,70,72,74,-1,76,78,80,-1,82,84,-1,-1,-1,-1,-1,-1,-1,-1,-1,-1,-1,-1,-1,-1,-1,-1,-1,-1],"split_conditions":[5.113636E-1,1.03913635E-1,1.8541667E0,7.846154E-2,5E-1,5E-1,5E-1,5E-1,-9.912474E-2,1.5E0,-9.469259E-2,8.642857E-1,6.747253E-1,3.1666665E0,5E-1,5E-1,4E0,5E-1,1.5E1,7.376344E-1,-1.423654E-1,-9.4606556E-2,5E-1,5E-1,-1.1030163E-1,9.094825E-2,3.8292278E-3,5E-1,-9.0794295E-2,-9.852194E-2,3.2380875E-2,2.979592E-1,4.8333335E-1,1.0586154E-1,1.5285104E-2,5.747051E-1,5E-1,1.2333333E0,7.1116E-2,1.9375E0,-8.94978E-2,1.5E0,5E-1,2.1637428E-1,4.6639293E-1,-1.2645565E-1,2.1249427E-2,1.6980356E-2,-1.2459051E-1,8.452381E-1,-6.223918E-2,-1.7585443E-2,5.6450475E-2,7.5913124E-2,2.175E0,5.8757063E-2,-1.0113931E-1,3E0,3.5E0,1.5470494E-1,1.1308571E-1,3.3687943E-1,5E-1,7.4596775E-1,8.1641175E-2,5E-1,2.3392859E0,5.591366E-3,8.2544684E-2,3.2045346E-2,1.1457075E-1,-5.1832337E-2,7.5435154E-2,7.920776E-2,-1.0293043E-2,7.048491E-3,-1.000066E-1,1.1986631E-2,6.355984E-2,7.832164E-2,-1.9471755E-2,-1.00984804E-1,6.8596475E-2,6.160885E-2,1.5065E-3],"split_indices":[226,226,226,226,206,3,207,210,0,251,0,226,226,226,205,211,210,247,247,226,0,0,210,3,0,0,0,204,0,0,0,226,226,0,0,226,206,226,0,226,0,208,205,226,226,0,0,0,0,226,0,0,0,0,226,226,0,207,205,226,0,226,207,226,0,211,226,0,0,0,0,0,0,0,0,0,0,0,0,0,0,0,0,0,0],"split_type":[0,0,0,0,0,0,0,0,0,0,0,0,0,0,0,0,0,0,0,0,0,0,0,0,0,0,0,0,0,0,0,0,0,0,0,0,0,0,0,0,0,0,0,0,0,0,0,0,0,0,0,0,0,0,0,0,0,0,0,0,0,0,0,0,0,0,0,0,0,0,0,0,0,0,0,0,0,0,0,0,0,0,0,0,0],"sum_hessian":[3.1506793E2,2.71649E2,4.341896E1,2.2142546E2,5.022352E1,2.6104553E1,1.731441E1,2.1950784E2,1.9176116E0,4.8168766E1,2.0547516E0,1.8695112E1,7.409441E0,1.3120521E1,4.1938896E0,2.146628E2,4.845047E0,4.04941E1,7.6746683E0,1.2142567E1,6.552545E0,1.8834339E0,5.526007E0,1.0705692E1,2.4148278E0,2.1660795E0,2.0278099E0,2.1301787E2,1.6449269E0,3.6863844E0,1.1586626E0,3.574594E1,4.7481546E0,6.5219493E0,1.1527191E0,6.2222404E0,5.9203258E0,4.3366857E0,1.1893218E0,9.489596E0,1.2160959E0,1.9870192E2,1.4315948E1,2.4653528E1,1.1092414E1,3.1322012E0,1.6159536E0,1.9071572E0,4.3150835E0,4.743047E0,1.1772782E0,2.856194E0,1.4804914E0,1.215312E0,8.274284E0,1.9538002E2,3.3218985E0,8.122268E0,6.19368E0,1.7186049E1,7.4674807E0,5.807179E0,5.285235E0,3.506662E0,1.2363856E0,3.0870712E0,5.1872134E0,1.9138535E2,3.9946787E0,3.6576736E0,4.4645944E0,4.270951E0,1.922729E0,1.0219442E1,6.9666057E0,3.865451E0,1.9417279E0,4.153109E0,1.132126E0,1.2254515E0,2.2812104E0,1.9145873E0,1.1724839E0,1.1141034E0,4.07311E0],"tree_param":{"num_deleted":"0","num_feature":"261","num_nodes":"85","size_leaf_vector":"0"}},{"base_weights":[3.0040795E-2,9.94144E-2,-1.4539374E-1,1.202317E-1,-6.8650365E-1,-4.8841155E-1,-3.218723E-2,8.618187E-2,5.363055E-1,-1.0377293E0,2.517704E-1,-2.1895851E-1,-8.692271E-1,-1.0267635E-1,7.4334985E-1,1.0405774E-1,-5.589415E-1,6.0717785E-1,-0E0,4.440102E-2,-1.1574458E0,4.5691824E-1,-2.25105E-1,-7.2499484E-2,1.584599E-1,3.4099135E-1,-9.4685453E-1,5.8420324E-1,-1.40654845E-2,-2.6224923E-1,6.2412614E-1,9.75805E-2,-5.1463866E-1,8.3428055E-1,1.2477782E-1,6.730218E-1,1.1399114E-1,-9.5448345E-2,-5.825943E-1,2.1114963E-1,-9.904261E-1,-8.21434E-1,1.9100179E-1,-1.6734242E-1,1.7820019E-1,-3.5405728E-1,4.6330452E-1,-7.167721E-1,1.2957482E-1,3.8204044E-1,-4.2559344E-1,-1.3622947E0,-9.662412E-2,-0E0,3.4445938E-1,-3.7494457E-1,4.693928E-1,4.4562337E-1,8.390793E-2,-1.5517744E-1,-7.9724807E-1,2.7618223E-1,6.8832946E-1,-1.0167234E0,-1.2024744E-1],"categories":[],"categories_nodes":[],"categories_segments":[],"categories_sizes":[],"default_left":[1,1,1,1,1,1,1,1,1,0,0,1,0,1,0,1,1,0,0,0,0,1,1,1,1,0,0,1,0,1,0,1,1,0,1,0,0,1,1,1,0,1,1,1,1,1,1,1,0,0,0,0,0,0,0,0,0,0,0,0,0,0,0,0,0],"id":16,"left_children":[1,3,5,7,9,11,13,15,17,-1,-1,19,-1,21,-1,23,25,-1,-1,-1,-1,27,29,31,33,-1,-1,35,-1,37,-1,39,41,-1,43,-1,-1,45,47,49,-1,51,53,55,57,59,61,63,-1,-1,-1,-1,-1,-1,-1,-1,-1,-1,-1,-1,-1,-1,-1,-1,-1],"loss_changes":[3.8264508E0,3.6664026E0,3.2847018E0,2.9365702E0,2.3945973E0,1.6861229E0,3.6660593E0,2.34734E0,4.692359E-1,0E0,0E0,3.9157565E0,0E0,4.448367E0,0E0,1.9865963E0,2.4247394E0,0E0,0E0,0E0,0E0,8.426125E-1,1.7986202E0,3.7435253E0,3.2036736E0,0E0,0E0,1.083529E-1,0E0,2.5711243E0,0E0,4.377427E0,3.338076E0,0E0,2.3962557E0,0E0,0E0,5.443405E0,1.9057817E0,3.7602558E0,0E0,3.4393053E0,1.6521882E-1,3.261389E0,3.0763388E0,1.8994904E0,2.5996685E-2,2.2506485E0,0E0,0E0,0E0,0E0,0E0,0E0,0E0,0E0,0E0,0E0,0E0,0E0,0E0,0E0,0E0,0E0,0E0],"parents":[2147483647,0,0,1,1,2,2,3,3,4,4,5,5,6,6,7,7,8,8,11,11,13,13,15,15,16,16,21,21,22,22,23,23,24,24,27,27,29,29,31,31,32,32,34,34,37,37,38,38,39,39,41,41,42,42,43,43,44,44,45,45,46,46,47,47],"right_children":[2,4,6,8,10,12,14,16,18,-1,-1,20,-1,22,-1,24,26,-1,-1,-1,-1,28,30,32,34,-1,-1,36,-1,38,-1,40,42,-1,44,-1,-1,46,48,50,-1,52,54,56,58,60,62,64,-1,-1,-1,-1,-1,-1,-1,-1,-1,-1,-1,-1,-1,-1,-1,-1,-1],"split_conditions":[9.15E1,5E-1,9.35E1,9.05E1,8.8E1,9.25E1,5E-1,5E-1,5E-1,-1.0377293E-1,2.5177041E-2,5E-1,-8.692271E-2,9.45E1,7.433499E-2,7.65E1,5.95E1,6.0717788E-2,-0E0,4.4401023E-3,-1.1574458E-1,5E-1,2.5E0,6.85E1,7.85E1,3.4099136E-2,-9.468546E-2,5E-1,-1.4065484E-3,1.015E2,6.2412616E-2,5E-1,5E-1,8.3428055E-2,8.05E1,6.730218E-2,1.13991145E-2,9.95E1,5E-1,5E-1,-9.904262E-2,7.45E1,7.35E1,5E-1,8.25E1,9.75E1,5E-1,1.075E2,1.2957483E-2,3.8204044E-2,-4.2559344E-2,-1.3622947E-1,-9.662412E-3,-0E0,3.4445938E-2,-3.749446E-2,4.693928E-2,4.4562336E-2,8.390794E-3,-1.5517744E-2,-7.972481E-2,2.7618224E-2,6.883295E-2,-1.01672344E-1,-1.2024744E-2],"split_indices":[0,243,0,0,0,0,243,210,207,0,0,6,0,0,0,0,0,0,0,0,0,207,246,0,0,0,0,7,0,0,0,7,7,0,0,0,0,0,209,207,0,0,0,208,0,0,209,0,0,0,0,0,0,0,0,0,0,0,0,0,0,0,0,0,0],"split_type":[0,0,0,0,0,0,0,0,0,0,0,0,0,0,0,0,0,0,0,0,0,0,0,0,0,0,0,0,0,0,0,0,0,0,0,0,0,0,0,0,0,0,0,0,0,0,0,0,0,0,0,0,0,0,0,0,0,0,0,0,0,0,0,0,0],"sum_hessian":[3.1272235E2,2.2549712E2,8.722526E1,2.2097838E2,4.5187297E0,2.0109015E1,6.711624E1,2.0615674E2,1.4821641E1,3.3892684E0,1.129461E0,1.3267678E1,6.841336E0,6.277414E1,4.342101E0,2.019547E2,4.2020435E0,1.2572499E1,2.2491422E0,1.1045044E1,2.2226343E0,1.0313382E1,5.246076E1,4.639368E1,1.5556102E2,1.1152995E0,3.0867443E0,8.30993E0,2.0034518E0,5.133907E1,1.1216881E0,3.377211E1,1.2621569E1,5.6784844E0,1.4988254E2,6.107104E0,2.2028265E0,3.5297775E1,1.6041294E1,3.1663845E1,2.1082654E0,8.906576E0,3.7149923E0,2.2053358E1,1.2782917E2,2.473613E1,1.05616455E1,1.3787006E1,2.2542882E0,2.5651941E1,6.0119042E0,4.2985854E0,4.6079907E0,2.011331E0,1.7036613E0,1.7299128E1,4.754232E0,3.1465904E1,9.6363266E1,1.8581861E1,6.1542697E0,7.8323517E0,2.7292933E0,8.332684E0,5.4543223E0],"tree_param":{"num_deleted":"0","num_feature":"261","num_nodes":"65","size_leaf_vector":"0"}},{"base_weights":[2.6483353E-2,8.780123E-2,-3.466212E-1,1.2913029E-1,-2.338698E-1,-5.526406E-1,-8.338978E-3,5.8460675E-2,4.045934E-1,-3.6741787E-1,5.652032E-1,-9.3179417E-1,-5.0817683E-2,1.1646757E-1,-9.007644E-1,1.3049975E-1,-4.8112538E-1,2.7748033E-1,9.293627E-1,-2.0864818E-1,-9.7244024E-1,7.4557567E-1,5.0126333E-3,-1.1237357E0,5.718316E-2,3.2645693E-1,-1.0392047E0,-7.2741574E-1,2.489026E-1,1.5039511E-1,-9.402415E-1,-7.886324E-1,3.6303985E-1,4.3873835E-1,-7.3196954E-1,-2.8493083E-1,5.488787E-1,-2.4405682E-1,6.6704756E-1,4.5413408E-1,-3.3471486E-1,1.7245835E-1,-5.6972265E-1,-9.8931706E-1,6.55247E-1,8.1548846E-1,-7.6275176E-1,6.28873E-1,-0E0,-1.1898967E0,1.9575611E-1,-1.465744E-1,-9.955075E-1,3.1403732E-1,-8.122066E-1,1.0150992E0,1.6910577E-1,1.5385197E-1,8.077349E-1,-9.274699E-1,4.2016467E-1,1.8498142E-1,-6.853781E-1,-9.69732E-1,2.522983E-1,-5.7506824E-1,-1.3612337E0,1.7097977E-1,1.0377144E0,3.8515523E-1,1.0378124E0,-8.925758E-1,2.1874595E-1,-3.4237422E-2,-7.943773E-1,-5.1914744E-2,5.427984E-1,4.8721188E-1,-8.2449454E-1,1.6242374E-1,1.0691768E0,-8.703853E-1,2.0940262E-1,7.248847E-1,-1.08418494E-1,-5.2333724E-2,4.6631625E-1,3.6538847E-2,-6.6398776E-1,1.7959237E-1,6.931591E-1],"categories":[],"categories_nodes":[],"categories_segments":[],"categories_sizes":[],"default_left":[1,1,1,1,1,1,1,1,1,1,1,1,1,1,0,1,1,1,0,1,0,0,0,0,0,1,0,0,1,1,0,1,1,1,1,1,0,1,1,1,1,1,1,1,0,1,0,1,1,0,0,1,0,0,0,0,1,1,0,0,0,1,0,0,0,1,0,0,0,1,0,0,1,1,0,0,0,1,0,0,0,0,0,0,0,0,0,0,0,0,0],"id":17,"left_children":[1,3,5,7,9,11,13,15,17,19,21,23,25,27,-1,29,31,33,-1,35,-1,-1,-1,-1,-1,37,-1,-1,39,41,-1,43,45,47,49,51,-1,53,55,57,59,61,63,65,-1,67,-1,69,71,-1,-1,73,-1,-1,-1,-1,75,77,-1,-1,-1,79,-1,-1,-1,81,-1,-1,-1,83,-1,-1,85,87,-1,-1,-1,89,-1,-1,-1,-1,-1,-1,-1,-1,-1,-1,-1,-1,-1],"loss_changes":[7.11426E0,3.5950687E0,2.902103E0,4.5361514E0,3.4482067E0,4.778124E0,2.3525188E0,7.507787E0,2.601492E0,2.062235E0,2.6899552E-1,3.164034E0,5.4497294E0,1.9764127E0,0E0,3.6368978E0,6.325393E0,6.964165E0,0E0,1.4683051E0,0E0,0E0,0E0,0E0,0E0,2.2775226E0,0E0,0E0,2.0904346E0,2.722007E0,0E0,5.841222E0,4.1458864E0,3.0237007E0,3.0197246E0,1.727955E0,0E0,1.8278193E0,7.0504665E-1,9.2999196E-1,2.5872002E0,1.8141284E0,2.1171124E0,9.9827766E-1,0E0,2.6987505E-1,0E0,1.6826677E0,2.607797E0,0E0,0E0,1.2400266E0,0E0,0E0,0E0,0E0,5.3653616E-1,3.1976225E0,0E0,0E0,0E0,2.7785225E0,0E0,0E0,0E0,2.661698E0,0E0,0E0,0E0,3.2871082E0,0E0,0E0,8.511742E-1,1.0289395E0,0E0,0E0,0E0,9.7949624E-2,0E0,0E0,0E0,0E0,0E0,0E0,0E0,0E0,0E0,0E0,0E0,0E0,0E0],"parents":[2147483647,0,0,1,1,2,2,3,3,4,4,5,5,6,6,7,7,8,8,9,9,10,10,11,11,12,12,13,13,15,15,16,16,17,17,19,19,25,25,28,28,29,29,31,31,32,32,33,33,34,34,35,35,37,37,38,38,39,39,40,40,41,41,42,42,43,43,45,45,47,47,48,48,51,51,56,56,57,57,61,61,65,65,69,69,72,72,73,73,77,77],"right_children":[2,4,6,8,10,12,14,16,18,20,22,24,26,28,-1,30,32,34,-1,36,-1,-1,-1,-1,-1,38,-1,-1,40,42,-1,44,46,48,50,52,-1,54,56,58,60,62,64,66,-1,68,-1,70,72,-1,-1,74,-1,-1,-1,-1,76,78,-1,-1,-1,80,-1,-1,-1,82,-1,-1,-1,84,-1,-1,86,88,-1,-1,-1,90,-1,-1,-1,-1,-1,-1,-1,-1,-1,-1,-1,-1,-1],"split_conditions":[5.113636E-1,5E-1,1.8541667E0,1.03913635E-1,1.15E1,8.95E1,5E-1,5E-1,1.5E0,5E-1,7.8E1,1.3E0,9.5E-1,7.7E1,-9.007644E-2,7.846154E-2,5E-1,5E-1,9.293627E-2,6E0,-9.7244024E-2,7.4557565E-2,5.0126336E-4,-1.1237357E-1,5.7183164E-3,6.794872E-1,-1.03920475E-1,-7.2741576E-2,9.05E1,5E-1,-9.402415E-2,5E-1,1.5E0,2.979592E-1,4.8333335E-1,5E-1,5.4887872E-2,9.05E1,7.563844E-1,8.75E1,1E0,1.085E2,9.65E1,8.75E1,6.55247E-2,5E-1,-7.627518E-2,2.1637428E-1,8.1E1,-1.1898967E-1,1.957561E-2,1.1111111E-1,-9.955075E-2,3.140373E-2,-8.1220664E-2,1.0150992E-1,1.5E0,8.55E1,8.0773495E-2,-9.2746995E-2,4.201647E-2,1.075E2,-6.853781E-2,-9.69732E-2,2.522983E-2,8.65E1,-1.3612337E-1,1.7097978E-2,1.0377144E-1,1.5470494E-1,1.0378124E-1,-8.925758E-2,4.578145E-1,1.015E2,-7.943773E-2,-5.1914747E-3,5.427984E-2,5E-1,-8.244946E-2,1.6242376E-2,1.0691768E-1,-8.703853E-2,2.0940263E-2,7.248847E-2,-1.0841849E-2,-5.2333726E-3,4.6631627E-2,3.6538846E-3,-6.639878E-2,1.7959237E-2,6.931591E-2],"split_indices":[226,206,226,226,208,0,3,7,251,205,0,226,226,0,0,226,251,247,0,247,0,0,0,0,0,226,0,0,0,243,0,205,247,226,226,247,0,0,226,0,208,0,0,0,0,247,0,226,0,0,0,226,0,0,0,0,247,0,0,0,0,0,0,0,0,0,0,0,0,226,0,0,226,0,0,0,0,206,0,0,0,0,0,0,0,0,0,0,0,0,0],"split_type":[0,0,0,0,0,0,0,0,0,0,0,0,0,0,0,0,0,0,0,0,0,0,0,0,0,0,0,0,0,0,0,0,0,0,0,0,0,0,0,0,0,0,0,0,0,0,0,0,0,0,0,0,0,0,0,0,0,0,0,0,0,0,0,0,0,0,0,0,0,0,0,0,0,0,0,0,0,0,0,0,0,0,0,0,0,0,0,0,0,0,0],"sum_hessian":[3.1099738E2,2.6846426E2,4.2533104E1,2.392237E2,2.9240562E1,2.5502335E1,1.703077E1,1.9226155E2,4.696215E1,2.5876886E1,3.3636758E0,1.3657222E1,1.1845113E1,1.5610836E1,1.4199339E0,1.7082776E2,2.1433784E1,3.9665123E1,7.2970276E0,2.2103529E1,3.7733579E0,1.9064376E0,1.4572382E0,1.1512199E1,2.1450226E0,8.971382E0,2.873731E0,1.1302099E0,1.4480626E1,1.6895338E2,1.8743774E0,1.5985707E1,5.448077E0,3.5000027E1,4.6650963E0,2.1061323E1,1.042205E0,3.2064486E0,5.7649336E0,1.1227151E1,3.2534747E0,1.6515315E2,3.8002422E0,1.4518685E1,1.467022E0,4.280567E0,1.1675099E0,2.406515E1,1.0934877E1,3.0767622E0,1.5883343E0,1.9134918E1,1.9264044E0,1.6663158E0,1.5401328E0,2.3640993E0,3.4008343E0,7.3849206E0,3.8422308E0,1.8542659E0,1.3992088E0,1.6399179E2,1.1613566E0,2.6158316E0,1.1844107E0,8.631926E0,5.8867593E0,1.9303482E0,2.3502188E0,1.692175E1,7.1434E0,1.4303632E0,9.504514E0,1.7712667E1,1.4222518E0,2.3658469E0,1.0349874E0,6.148001E0,1.2369192E0,1.615729E2,2.4188838E0,6.4071813E0,2.2247448E0,9.98983E0,6.9319186E0,4.506545E0,4.997969E0,1.65824E1,1.1302679E0,3.8530755E0,2.294926E0],"tree_param":{"num_deleted":"0","num_feature":"261","num_nodes":"91","size_leaf_vector":"0"}},{"base_weights":[2.2002546E-2,5.7640344E-2,-2.4740046E-1,8.590626E-2,-1.2728971E-1,-3.4018254E-1,3.5184905E-1,-2.8663247E-3,1.5252846E-1,-1.8088895E-1,4.760567E-1,-1.6479355E-1,-1.034298E0,7.0367575E-1,-3.259851E-2,2.5551952E-2,-8.967655E-1,1.9559233E-1,-1.09976165E-1,-1.9370969E-1,-0E0,-2.670415E-1,1.9117005E-1,1.0280832E-2,4.8844928E-1,1.7902762E-1,5.557812E-1,-3.1978387E-1,1.9658735E-1,-1.0814575E-1,4.4798452E-1,-0E0,4.671922E-1,1.8109554E-1,-0E0,-4.0607378E-1,-0E0,6.7306995E-2,5.908273E-1,-0E0,-1.7791772E-2,-1.799715E-1,-5.8154434E-1,-1.4142841E-3,1.5743857E-2],"categories":[],"categories_nodes":[],"categories_segments":[],"categories_sizes":[],"default_left":[1,1,1,1,1,1,1,1,1,1,0,1,0,0,0,1,0,1,0,0,0,1,1,1,0,1,0,1,0,0,1,1,0,0,0,1,0,0,0,1,0,0,0,0,0],"id":18,"left_children":[1,3,5,7,9,11,13,15,17,19,-1,21,-1,-1,-1,23,-1,25,-1,-1,-1,27,29,31,-1,33,-1,35,-1,-1,37,39,-1,-1,-1,41,-1,-1,-1,43,-1,-1,-1,-1,-1],"loss_changes":[2.9403117E0,1.4405534E0,2.1175942E0,1.4601793E0,1.1865764E0,3.3621593E0,8.710013E-1,2.8534014E0,1.6186383E0,1.0848951E-1,0E0,1.0654314E0,0E0,0E0,0E0,5.790223E-1,0E0,4.1685677E-1,0E0,0E0,0E0,6.4602506E-1,6.192202E-1,5.395569E-1,0E0,3.0085564E-2,0E0,6.2537575E-1,0E0,0E0,6.1551332E-3,1.4947511E-3,0E0,0E0,0E0,3.4530282E-1,0E0,0E0,0E0,4.6146954E-3,0E0,0E0,0E0,0E0,0E0],"parents":[2147483647,0,0,1,1,2,2,3,3,4,4,5,5,6,6,7,7,8,8,9,9,11,11,15,15,17,17,21,21,22,22,23,23,25,25,27,27,30,30,31,31,35,35,39,39],"right_children":[2,4,6,8,10,12,14,16,18,20,-1,22,-1,-1,-1,24,-1,26,-1,-1,-1,28,30,32,-1,34,-1,36,-1,-1,38,40,-1,-1,-1,42,-1,-1,-1,44,-1,-1,-1,-1,-1],"split_conditions":[5E-1,5E-1,9.5E0,5E-1,5E-1,5E-1,1.15E1,5E-1,5E-1,5E-1,4.760567E-2,5E-1,-1.03429794E-1,7.0367575E-2,-3.2598511E-3,5E-1,-8.967655E-2,5E-1,-1.0997617E-2,-1.937097E-2,-0E0,5E-1,5E-1,5E-1,4.884493E-2,5E-1,5.557812E-2,5E-1,1.9658735E-2,-1.08145755E-2,1.5E0,5E-1,4.671922E-2,1.8109554E-2,-0E0,5E-1,-0E0,6.7306994E-3,5.9082728E-2,5E-1,-1.7791772E-3,-1.7997151E-2,-5.8154434E-2,-1.4142842E-4,1.5743858E-3],"split_indices":[206,7,206,1,205,205,206,205,6,243,0,6,0,0,0,221,0,210,0,0,0,243,1,237,0,243,0,7,0,0,206,243,0,0,0,1,0,0,0,6,0,0,0,0,0],"split_type":[0,0,0,0,0,0,0,0,0,0,0,0,0,0,0,0,0,0,0,0,0,0,0,0,0,0,0,0,0,0,0,0,0,0,0,0,0,0,0,0,0,0,0,0,0],"sum_hessian":[3.082116E2,2.73856E2,3.435563E1,2.3927765E2,3.4578335E1,3.0559984E1,3.7956445E0,1.0146872E2,1.3780893E2,3.2909363E1,1.6689712E0,2.5868582E1,4.6914015E0,1.8011663E0,1.9944781E0,9.920101E1,2.2677112E0,1.1946839E2,1.8340542E1,3.1434946E1,1.4744183E0,2.0874594E1,4.9939885E0,9.7743164E1,1.4578475E0,1.1659675E2,2.8716404E0,1.9560884E1,1.3137089E0,2.177423E0,2.8165653E0,9.642326E1,1.3198994E0,1.14839226E2,1.7575206E0,1.5467602E1,4.093283E0,1.7277377E0,1.0888276E0,9.2901215E1,3.5220485E0,8.4433975E0,7.0242043E0,7.610758E1,1.6793633E1],"tree_param":{"num_deleted":"0","num_feature":"261","num_nodes":"45","size_leaf_vector":"0"}},{"base_weights":[2.0080656E-2,5.2454025E-2,-2.2620863E-1,3.9947763E-2,3.5359085E-1,-3.130952E-1,3.3271962E-1,4.7456373E-2,-7.124378E-1,5.555131E-1,-1.750838E-1,-1.4728613E-1,-9.954695E-1,6.773433E-1,-3.05644E-2,2.7182277E-2,3.1975043E-1,7.314085E-1,-0E0,-5.8433384E-1,2.1522953E-1,-2.5128633E-1,5.973922E-1,-1.057556E-2,2.3071454E-1,1.5884434E-1,8.612911E-1,-1.63335E-1,-8.002025E-1,3.4461387E-3,-1.8056571E-1,1.2005077E-1,8.9463717E-1,3.2573625E-1,-7.861098E-1,-9.919224E-2,-5.735238E-1,3.034832E-2,-1.3805959E-1,-5.5278885E-1,6.5193266E-1,7.7418976E-2,5.963666E-1,5.544375E-1,3.29888E-2,-1.8370736E-1,8.8488646E-2,5.2740853E-2,-3.222176E-1,-1.9890904E-1,4.8145267E-1,-7.744154E-1,4.809033E-1,2.9427053E-2,5.527123E-1,1.9756281E-1,-1.6920139E-1,-3.1372803E-1,1.6389792E-1,-7.7214934E-2,5.689048E-1],"categories":[],"categories_nodes":[],"categories_segments":[],"categories_sizes":[],"default_left":[1,1,1,1,1,1,1,1,0,1,1,1,0,0,0,1,1,0,0,0,0,1,0,1,1,1,0,1,0,1,1,1,0,1,0,1,0,1,1,1,0,1,0,0,1,1,1,0,0,0,0,0,0,0,0,0,0,0,0,0,0],"id":19,"left_children":[1,3,5,7,9,11,13,15,-1,17,19,21,-1,-1,-1,23,25,-1,-1,-1,-1,27,-1,29,31,33,-1,35,-1,37,39,41,-1,43,-1,45,-1,47,49,51,-1,53,-1,-1,55,57,59,-1,-1,-1,-1,-1,-1,-1,-1,-1,-1,-1,-1,-1,-1],"loss_changes":[2.4317603E0,9.1908824E-1,1.8288648E0,1.3762963E0,1.2795683E0,3.097616E0,8.0357355E-1,1.3640739E0,0E0,8.8696337E-1,7.7585775E-1,2.1855462E0,0E0,0E0,0E0,1.9677906E0,1.0949216E0,0E0,0E0,0E0,0E0,8.0152E-1,0E0,5.4494894E-1,2.5546582E0,2.592979E0,0E0,3.7686324E-1,0E0,7.1500504E-1,5.7880793E0,5.066543E-1,0E0,7.6929045E-1,0E0,3.944321E-1,0E0,1.2566288E0,1.1621596E0,3.465358E0,0E0,6.3056695E-1,0E0,0E0,3.100996E-1,8.481269E-1,7.141399E-1,0E0,0E0,0E0,0E0,0E0,0E0,0E0,0E0,0E0,0E0,0E0,0E0,0E0,0E0],"parents":[2147483647,0,0,1,1,2,2,3,3,4,4,5,5,6,6,7,7,9,9,10,10,11,11,15,15,16,16,21,21,23,23,24,24,25,25,27,27,29,29,30,30,31,31,33,33,35,35,37,37,38,38,39,39,41,41,44,44,45,45,46,46],"right_children":[2,4,6,8,10,12,14,16,-1,18,20,22,-1,-1,-1,24,26,-1,-1,-1,-1,28,-1,30,32,34,-1,36,-1,38,40,42,-1,44,-1,46,-1,48,50,52,-1,54,-1,-1,56,58,60,-1,-1,-1,-1,-1,-1,-1,-1,-1,-1,-1,-1,-1,-1],"split_conditions":[5E-1,5E-1,9.5E0,6.5E0,2.5E0,5E-1,1.15E1,1.5E0,-7.1243785E-2,5E-1,1.1E1,3.5E0,-9.9546954E-2,6.773433E-2,-3.05644E-3,5E-1,3E0,7.314085E-2,-0E0,-5.8433384E-2,2.1522952E-2,5E-1,5.973922E-2,5E-1,5E-1,5E-1,8.6129114E-2,1.5E0,-8.002025E-2,5E-1,5E-1,5E-1,8.946372E-2,2.5E0,-7.861098E-2,5E-1,-5.7352383E-2,5E-1,1.5E0,1.5E0,6.5193266E-2,5E-1,5.963666E-2,5.5443753E-2,5E-1,5E-1,5E-1,5.2740853E-3,-3.222176E-2,-1.9890904E-2,4.8145268E-2,-7.7441536E-2,4.809033E-2,2.9427053E-3,5.5271234E-2,1.9756282E-2,-1.692014E-2,-3.1372804E-2,1.6389793E-2,-7.7214935E-3,5.6890484E-2],"split_indices":[206,238,206,251,239,205,206,251,0,2,251,251,0,0,0,3,239,0,0,0,0,251,0,208,208,3,0,208,0,6,6,210,0,251,0,208,0,239,239,209,0,209,0,0,2,3,6,0,0,0,0,0,0,0,0,0,0,0,0,0,0],"split_type":[0,0,0,0,0,0,0,0,0,0,0,0,0,0,0,0,0,0,0,0,0,0,0,0,0,0,0,0,0,0,0,0,0,0,0,0,0,0,0,0,0,0,0,0,0,0,0,0,0,0,0,0,0,0,0,0,0,0,0,0,0],"sum_hessian":[3.0745352E2,2.7346725E2,3.398627E1,2.6466507E2,8.802206E0,3.0257723E1,3.7285469E0,2.6349207E2,1.1729943E0,6.6675577E0,2.1346486E0,2.5811264E1,4.4464583E0,1.7341954E0,1.9943515E0,2.4731569E2,1.6176374E1,4.9964647E0,1.6710926E0,1.0635269E0,1.0711216E0,2.3640472E1,2.1707933E0,2.0853848E2,3.877721E1,1.4023307E1,2.1530674E0,2.2110312E1,1.5301601E0,1.9237532E2,1.6163147E1,3.4774475E1,4.002735E0,1.2811525E1,1.2117819E0,2.0936113E1,1.1741976E0,1.6392104E2,2.8454288E1,1.1655345E1,4.5078025E0,3.367992E1,1.0945548E0,6.110885E0,6.7006397E0,1.5371558E1,5.564556E0,1.5575795E2,8.163084E0,2.7018723E1,1.435566E0,1.0044598E1,1.6107473E0,3.2226223E1,1.4536998E0,4.390713E0,2.3099265E0,1.1795606E1,3.5759525E0,4.499389E0,1.0651667E0],"tree_param":{"num_deleted":"0","num_feature":"261","num_nodes":"61","size_leaf_vector":"0"}},{"base_weights":[1.9105917E-2,7.539525E-2,-3.2605067E-1,2.4643304E-2,2.9449522E-1,-5.1707417E-1,-1.336646E-2,3.854107E-2,-8.951598E-1,4.7193357E-1,-0E0,-6.8922275E-1,-2.2999553E-2,-2.613836E-1,6.042789E-1,4.9552184E-2,-8.1515974E-1,6.0062855E-1,-4.4361097E-1,-2.2975461E-1,7.1969724E-1,-2.6222894E-1,-1.2854484E0,-8.6515766E-1,3.2898504E-1,7.1296406E-1,-4.3937197E-1,8.2345986E-1,7.63962E-2,3.109453E-2,7.5840306E-1,6.594925E-1,4.4644117E-2,-8.8909584E-1,2.0831476E-1,-6.6565555E-1,3.9813668E-3,-4.855549E-1,8.184966E-1,5.7412946E-1,1.0915349E-1,-1.6971612E-1,-1.0157241E0,-0E0,3.7476718E-1,4.7164062E-1,9.169275E-1,-7.739938E-1,7.415834E-1,-0E0,-1.151211E0,-5.217432E-1,3.331325E-1,1.6843693E-1,-6.589853E-1,-1.3529882E-1,5.230603E-1,-0E0,-8.1782204E-1,-5.4370742E-2,2.775298E-1,2.6245596E-2,5.7847774E-1,7.294881E-1,-0E0,-9.6851254E-1,2.6573923E-1,6.334923E-1,4.2432457E-2,-3.2748435E-2,-1.1713285E0,-2.8213683E-1,2.1871635E-1,-1.3149652E-2,-5.374496E-1,2.744939E-2,6.6503996E-1,3.66085E-1,-7.040753E-1,8.25781E-1,1.3993548E-1,8.84078E-1,2.0973721E-1,-4.534842E-1,4.9607575E-1,-9.228212E-2,3.00874E-1,-7.372887E-1,3.268531E-1,5.5124694E-1,-0E0],"categories":[],"categories_nodes":[],"categories_segments":[],"categories_sizes":[],"default_left":[1,1,1,1,1,1,1,1,0,1,1,1,1,1,1,1,0,1,1,1,0,1,0,0,1,0,1,0,0,1,0,1,1,0,0,1,1,1,0,0,1,1,0,1,1,1,0,0,0,0,0,1,1,0,1,0,0,1,0,1,1,1,1,1,1,0,0,0,1,1,0,0,1,0,0,0,0,0,0,0,0,0,0,0,0,0,0,0,0,0,0],"id":20,"left_children":[1,3,5,7,9,11,13,15,-1,17,19,21,23,25,27,29,-1,31,33,35,-1,37,-1,-1,39,-1,41,-1,-1,43,-1,45,47,-1,-1,49,51,53,-1,-1,55,57,-1,59,61,63,-1,-1,-1,-1,-1,65,67,-1,69,-1,-1,71,-1,73,75,77,79,81,83,-1,-1,-1,85,87,-1,-1,89,-1,-1,-1,-1,-1,-1,-1,-1,-1,-1,-1,-1,-1,-1,-1,-1,-1,-1],"loss_changes":[5.9411654E0,2.8691592E0,2.4107256E0,2.616463E0,2.467257E0,2.0135288E0,2.8502727E0,1.8909369E0,0E0,3.9118748E0,3.607324E0,4.00955E0,2.945566E0,2.721306E0,3.0238056E-1,2.5877137E0,0E0,6.7838573E-1,1.6026524E0,1.7874911E0,0E0,3.4686127E0,0E0,0E0,1.0623056E-1,0E0,1.4749444E0,0E0,0E0,2.2073545E0,0E0,2.9889488E-1,3.132012E0,0E0,0E0,2.0805094E0,2.093041E0,1.560574E0,0E0,0E0,7.34867E-1,1.3024695E0,0E0,2.9928706E0,1.0496237E0,1.9462235E0,0E0,0E0,0E0,0E0,0E0,2.058289E0,4.876353E-1,0E0,2.745502E0,0E0,0E0,6.302629E-1,0E0,3.116192E0,2.9612026E0,2.2211316E0,7.398379E-1,3.6750793E-1,1.9444261E0,0E0,0E0,0E0,2.8455597E-1,1.859049E0,0E0,0E0,3.83203E-1,0E0,0E0,0E0,0E0,0E0,0E0,0E0,0E0,0E0,0E0,0E0,0E0,0E0,0E0,0E0,0E0,0E0,0E0],"parents":[2147483647,0,0,1,1,2,2,3,3,4,4,5,5,6,6,7,7,9,9,10,10,11,11,12,12,13,13,14,14,15,15,17,17,18,18,19,19,21,21,24,24,26,26,29,29,31,31,32,32,35,35,36,36,37,37,40,40,41,41,43,43,44,44,45,45,51,51,52,52,54,54,57,57,59,59,60,60,61,61,62,62,63,63,64,64,68,68,69,69,72,72],"right_children":[2,4,6,8,10,12,14,16,-1,18,20,22,24,26,28,30,-1,32,34,36,-1,38,-1,-1,40,-1,42,-1,-1,44,-1,46,48,-1,-1,50,52,54,-1,-1,56,58,-1,60,62,64,-1,-1,-1,-1,-1,66,68,-1,70,-1,-1,72,-1,74,76,78,80,82,84,-1,-1,-1,86,88,-1,-1,90,-1,-1,-1,-1,-1,-1,-1,-1,-1,-1,-1,-1,-1,-1,-1,-1,-1,-1],"split_conditions":[5.113636E-1,1.03913635E-1,1.8541667E0,7.846154E-2,2.979592E-1,5E-1,5E-1,8.5E0,-8.951598E-2,5E-1,5E-1,8.642857E-1,6.747253E-1,1.9375E0,3.5E0,5.8757063E-2,-8.1515975E-2,5E-1,2.5E0,5E-1,7.1969725E-2,8.452381E-1,-1.2854485E-1,-8.651577E-2,7.4615383E-1,7.129641E-2,3.1666665E0,8.2345985E-2,7.63962E-3,5E-1,7.584031E-2,2.1637428E-1,3E0,-8.890959E-2,2.0831477E-2,3.541667E-1,4.1428572E-1,5.747051E-1,8.184966E-2,5.741295E-2,1.2333333E0,5E-1,-1.0157241E-1,5E-1,3.5E0,1.5470494E-1,9.169275E-2,-7.739938E-2,7.415834E-2,-0E0,-1.15121104E-1,2E0,4.8722628E-1,1.6843693E-2,5E-1,-1.3529882E-2,5.2306034E-2,2.175E0,-8.178221E-2,1.5E0,5E-1,1.5E0,5.5E0,5E-1,5E-1,-9.685125E-2,2.6573924E-2,6.334923E-2,5E-1,7.043011E-1,-1.1713286E-1,-2.8213684E-2,2.3392859E0,-1.3149652E-3,-5.374496E-2,2.744939E-3,6.6503994E-2,3.66085E-2,-7.040753E-2,8.25781E-2,1.3993548E-2,8.840781E-2,2.0973722E-2,-4.534842E-2,4.9607575E-2,-9.228212E-3,3.00874E-2,-7.3728874E-2,3.268531E-2,5.5124696E-2,-0E0],"split_indices":[226,226,226,226,226,3,207,247,0,207,239,226,226,226,207,226,0,247,247,1,0,226,0,0,226,0,226,0,0,204,0,226,247,0,0,226,226,226,0,0,226,3,0,3,207,226,0,0,0,0,0,247,226,0,1,0,0,226,0,207,207,207,207,1,1,0,0,0,3,226,0,0,226,0,0,0,0,0,0,0,0,0,0,0,0,0,0,0,0,0,0],"split_type":[0,0,0,0,0,0,0,0,0,0,0,0,0,0,0,0,0,0,0,0,0,0,0,0,0,0,0,0,0,0,0,0,0,0,0,0,0,0,0,0,0,0,0,0,0,0,0,0,0,0,0,0,0,0,0,0,0,0,0,0,0,0,0,0,0,0,0,0,0,0,0,0,0,0,0,0,0,0,0,0,0,0,0,0,0,0,0,0,0,0,0],"sum_hessian":[3.063013E2,2.6478192E2,4.151937E1,2.1699385E2,4.7788082E1,2.4790537E1,1.6728836E1,2.1516434E2,1.8295101E0,2.8953684E1,1.8834396E1,1.7658041E1,7.1324954E0,1.2718585E1,4.0102506E0,2.1382953E2,1.3348035E0,2.598665E1,2.967034E0,1.4689291E1,4.145106E0,1.1540361E1,6.117679E0,1.7960339E0,5.3364615E0,1.1904422E0,1.1528143E1,2.0242577E0,1.9859927E0,2.0996754E2,3.861988E0,2.2890137E1,3.0965142E0,1.7310582E0,1.2359759E0,4.7266097E0,9.962682E0,1.0303403E1,1.2369585E0,1.070948E0,4.2655134E0,9.20742E0,2.320722E0,1.939976E2,1.5969941E1,1.5759757E1,7.130379E0,1.1979707E0,1.8985436E0,2.3752468E0,2.351363E0,3.2731278E0,6.6895537E0,1.8647255E0,8.438678E0,2.8097959E0,1.4557177E0,8.011844E0,1.1955764E0,1.6262848E2,3.1369118E1,6.8434863E0,9.126455E0,9.546601E0,6.2131557E0,2.11488E0,1.1582478E0,2.1711893E0,4.518364E0,4.591341E0,3.8473368E0,2.9616833E0,5.050161E0,1.5145502E2,1.117347E1,2.0238384E1,1.1130734E1,5.312311E0,1.5311755E0,4.7935724E0,4.332883E0,6.339023E0,3.2075782E0,3.1318853E0,3.0812707E0,2.8414268E0,1.6769373E0,1.3605599E0,3.230781E0,1.0449855E0,4.005175E0],"tree_param":{"num_deleted":"0","num_feature":"261","num_nodes":"91","size_leaf_vector":"0"}},{"base_weights":[1.7477067E-2,6.9132544E-2,-3.024026E-1,8.5526526E-2,-6.2449914E-1,-4.8327854E-1,-8.236798E-3,1.5377244E-1,-8.549706E-2,3.0148995E-1,-9.53817E-1,-8.268126E-1,-2.8265556E-2,-2.4382433E-1,5.775893E-1,1.7449167E-1,-5.928172E-1,-2.9835097E-2,-9.8369414E-1,-1.0095907E0,6.4953096E-2,3.0972373E-1,-9.4545645E-1,6.834061E-1,-4.1445902E-1,7.894792E-1,7.164425E-2,-4.5041507E-3,2.4987565E-1,-9.148796E-1,1.9237378E-1,-8.107118E-2,5.642129E-1,-1.9770266E-1,6.133942E-1,-8.195281E-1,-0E0,3.421484E-2,-8.4047663E-1,2.090414E-1,7.5152975E-1,-8.943847E-3,-6.7479175E-1,3.0207038E-1,-7.3830396E-1,9.242395E-1,1.6018654E-1,-1.3784021E-1,-1.1955391E0,7.0871824E-1,-9.502174E-1,-3.274382E-2,8.3293355E-1,2.4319649E-1,-9.8589414E-1,-1.0313253E-1,4.847043E-1,-1.1256539E0,1.1017332E-1,-6.232288E-2,4.4181493E-1,-8.662834E-1,6.8382037E-1,1.9311981E-1,-3.282034E-1,2.6417235E-1,-7.0573735E-1,-1.8222144E-1,5.845629E-1,-1.4035711E-2,6.968523E-1],"categories":[],"categories_nodes":[],"categories_segments":[],"categories_sizes":[],"default_left":[1,1,1,1,1,1,1,1,1,0,0,1,1,1,1,1,1,1,0,0,0,1,0,0,1,0,0,1,1,0,0,1,0,1,1,1,1,1,0,1,0,1,1,0,0,0,1,1,0,0,0,1,0,1,0,1,1,0,0,0,0,0,0,0,0,0,0,0,0,0,0],"id":21,"left_children":[1,3,5,7,9,11,13,15,17,-1,-1,19,21,23,25,27,29,31,-1,-1,-1,33,-1,-1,35,-1,-1,37,39,-1,-1,41,-1,43,45,47,49,51,-1,53,-1,55,57,-1,-1,-1,59,61,-1,-1,-1,63,-1,65,-1,67,69,-1,-1,-1,-1,-1,-1,-1,-1,-1,-1,-1,-1,-1,-1],"loss_changes":[5.013408E0,2.9383023E0,2.1077998E0,3.0663729E0,2.3079574E0,3.7394161E0,2.534492E0,2.916031E0,3.4039679E0,0E0,0E0,2.6223936E0,4.3892374E0,2.456564E0,2.6798642E-1,2.5379782E0,1.6570393E0,2.0965655E0,0E0,0E0,0E0,1.7669234E0,0E0,0E0,2.3050568E0,0E0,0E0,2.0020242E0,2.2360935E0,0E0,0E0,2.6842837E0,0E0,1.5347474E0,5.0379825E-1,1.1767707E0,5.5820756E0,3.0678465E0,0E0,5.0982594E0,0E0,2.8098783E0,2.8266804E0,0E0,0E0,0E0,4.1176772E-1,3.1275196E0,0E0,0E0,0E0,3.4315746E0,0E0,2.5054998E0,0E0,2.8991861E0,1.1971624E0,0E0,0E0,0E0,0E0,0E0,0E0,0E0,0E0,0E0,0E0,0E0,0E0,0E0,0E0],"parents":[2147483647,0,0,1,1,2,2,3,3,4,4,5,5,6,6,7,7,8,8,11,11,12,12,13,13,14,14,15,15,16,16,17,17,21,21,24,24,27,27,28,28,31,31,33,33,34,34,35,35,36,36,37,37,39,39,41,41,42,42,46,46,47,47,51,51,53,53,55,55,56,56],"right_children":[2,4,6,8,10,12,14,16,18,-1,-1,20,22,24,26,28,30,32,-1,-1,-1,34,-1,-1,36,-1,-1,38,40,-1,-1,42,-1,44,46,48,50,52,-1,54,-1,56,58,-1,-1,-1,60,62,-1,-1,-1,64,-1,66,-1,68,70,-1,-1,-1,-1,-1,-1,-1,-1,-1,-1,-1,-1,-1,-1],"split_conditions":[5.113636E-1,5E-1,1.8541667E0,9.15E1,6.2E1,8.95E1,5E-1,5E-1,5E-1,3.0148996E-2,-9.53817E-2,1.3E0,9.5E-1,1.9375E0,5E-1,7.95E1,8.8E1,5E-1,-9.836941E-2,-1.0095908E-1,6.4953095E-3,6.794872E-1,-9.454565E-2,6.8340614E-2,8.75E1,7.8947924E-2,7.1644248E-3,3.3021277E-1,5E-1,-9.148797E-2,1.9237379E-2,1.5E-1,5.642129E-2,9.05E1,7.563844E-1,8.15E1,9.05E1,2.1455939E-1,-8.404767E-2,2.5E0,7.515298E-2,5E-1,4.8333335E-1,3.0207038E-2,-7.3830396E-2,9.242395E-2,1.005E2,8E1,-1.19553916E-1,7.087182E-2,-9.502175E-2,6.75E1,8.3293356E-2,1.5E0,-9.858941E-2,4.5604397E-2,9.4E1,-1.1256539E-1,1.1017333E-2,-6.232288E-3,4.4181492E-2,-8.662834E-2,6.838204E-2,1.9311981E-2,-3.282034E-2,2.6417235E-2,-7.057374E-2,-1.8222144E-2,5.845629E-2,-1.4035711E-3,6.9685236E-2],"split_indices":[226,210,226,0,0,0,207,243,205,0,0,226,226,226,205,0,0,243,0,0,0,226,0,0,0,0,0,226,204,0,0,226,0,0,226,0,0,226,0,207,0,3,226,0,0,0,0,0,0,0,0,0,0,208,0,226,0,0,0,0,0,0,0,0,0,0,0,0,0,0,0],"split_type":[0,0,0,0,0,0,0,0,0,0,0,0,0,0,0,0,0,0,0,0,0,0,0,0,0,0,0,0,0,0,0,0,0,0,0,0,0,0,0,0,0,0,0,0,0,0,0,0,0,0,0,0,0,0,0,0,0,0,0,0,0,0,0,0,0,0,0,0,0,0,0],"sum_hessian":[3.0422125E2,2.6340735E2,4.0813896E1,2.5870532E2,4.7020392E0,2.4269691E1,1.6544207E1,1.8604715E2,7.265816E1,1.0609828E0,3.6410563E0,1.2957114E1,1.1312578E1,1.2603187E1,3.9410193E0,1.8224394E2,3.80321E0,6.984783E1,2.8103282E0,1.0854206E1,2.1029074E0,8.6479645E0,2.664613E0,1.1706493E0,1.1432538E1,1.9554605E0,1.9855587E0,5.3358513E1,1.2888544E2,2.7822175E0,1.0209925E0,6.5643234E1,4.204593E0,3.0863056E0,5.5616593E0,5.4629717E0,5.969566E0,5.1810677E1,1.5478355E0,1.2121687E2,7.6685586E0,5.9994087E1,5.6491494E0,1.6385428E0,1.4477628E0,2.2319763E0,3.3296828E0,2.7614276E0,2.7015443E0,3.7295046E0,2.2400613E0,4.857621E1,3.2344654E0,1.18981E2,2.235869E0,5.1603756E1,8.39033E0,3.4596734E0,2.1894763E0,1.8861902E0,1.4434927E0,1.5904799E0,1.1709478E0,2.7286554E1,2.1289656E1,1.1751281E2,1.4681938E0,4.739825E1,4.2055054E0,2.4866462E0,5.903684E0],"tree_param":{"num_deleted":"0","num_feature":"261","num_nodes":"71","size_leaf_vector":"0"}},{"base_weights":[1.4425812E-2,6.1352935E-2,-2.7984837E-1,1.5270944E-2,2.6425508E-1,-7.402764E-1,-1.6410632E-1,7.077861E-2,-4.1649684E-1,4.2566213E-1,-0E0,-8.799974E-2,-1.0354849E0,3.623318E-1,-2.3801553E-1,8.6306356E-2,-8.677198E-1,-5.221672E-1,5.340191E-1,2.3929358E-1,8.046313E-1,-1.539955E-1,7.630495E-1,-7.926089E-1,6.7054224E-1,-0E0,6.661891E-1,-4.667333E-1,-3.7431477E-3,6.8511955E-2,6.9178224E-1,-5.9478164E-1,2.972064E-1,5.747206E-1,-5.2972548E-2,1.1160719E-1,9.00593E-1,-2.951069E-1,7.4918073E-1,-8.215427E-2,-7.7233475E-1,6.558344E-1,-1.1416609E-1,7.9068966E-2,-7.063846E-1,-3.8827538E-1,2.826785E-1,-9.0560967E-1,1.01801775E-1,-5.0736177E-1,2.65079E-1,-1.0257623E0,-2.2233108E-1,-2.0037025E-1,3.4627625E-1,1.0157412E-1,-1.746693E-1,6.242513E-1,-8.364495E-3,-2.5989833E-1,-1.1128455E0,-1.9602782E-1,4.8770446E-1,8.2742286E-1,-1.0047029E-1,3.9353257E-1,-8.366106E-1,-1.0106466E0,1.9838149E-2,6.9306694E-2,7.493888E-1,-3.9342755E-1,3.2513276E-1,-4.3797597E-1,5.215135E-1,-7.083798E-1,2.2593252E-1,-4.8940673E-1,4.1076806E-1,6.076827E-1,-1.7380805E-1],"categories":[],"categories_nodes":[],"categories_segments":[],"categories_sizes":[],"default_left":[1,1,1,1,1,1,1,1,1,1,1,1,0,1,1,1,0,1,0,1,1,1,0,0,0,0,0,1,1,1,0,0,0,0,1,0,0,1,0,1,1,0,1,1,0,0,1,1,1,0,1,0,1,1,0,1,1,0,1,1,0,1,0,0,0,0,0,0,1,0,0,0,0,0,0,0,0,0,0,0,0],"id":22,"left_children":[1,3,5,7,9,11,13,15,17,19,21,23,-1,25,27,29,-1,31,-1,33,35,37,-1,-1,-1,-1,-1,39,41,43,-1,-1,-1,-1,45,-1,-1,47,-1,49,51,-1,53,55,-1,-1,57,59,61,-1,63,-1,65,67,-1,69,71,-1,73,75,-1,77,-1,-1,-1,-1,-1,-1,79,-1,-1,-1,-1,-1,-1,-1,-1,-1,-1,-1,-1],"loss_changes":[4.147459E0,2.3831472E0,1.8198965E0,5.1375756E0,1.9828954E0,1.051321E0,1.4280721E0,2.7124877E0,2.7747116E0,1.5758963E0,2.4980178E0,2.7569199E0,0E0,4.7544074E-1,1.57849E0,1.8171366E0,0E0,1.6391068E0,0E0,2.301875E0,2.0505047E-1,2.3313267E0,0E0,0E0,0E0,0E0,0E0,1.5304108E0,1.2221735E0,1.446855E0,0E0,0E0,0E0,0E0,1.5466576E0,0E0,0E0,4.162138E0,0E0,1.4861867E0,5.4676485E-1,0E0,6.9205135E-1,1.0692374E0,0E0,0E0,8.0517554E-1,1.9695997E-1,1.3899101E0,0E0,1.3459066E0,0E0,2.172694E0,2.93227E0,0E0,3.3527713E0,1.7830186E0,0E0,1.2301992E0,1.0686567E0,0E0,1.3992237E0,0E0,0E0,0E0,0E0,0E0,0E0,1.6761967E0,0E0,0E0,0E0,0E0,0E0,0E0,0E0,0E0,0E0,0E0,0E0,0E0],"parents":[2147483647,0,0,1,1,2,2,3,3,4,4,5,5,6,6,7,7,8,8,9,9,10,10,11,11,13,13,14,14,15,15,17,17,19,19,20,20,21,21,27,27,28,28,29,29,34,34,37,37,39,39,40,40,42,42,43,43,46,46,47,47,48,48,50,50,52,52,53,53,55,55,56,56,58,58,59,59,61,61,68,68],"right_children":[2,4,6,8,10,12,14,16,18,20,22,24,-1,26,28,30,-1,32,-1,34,36,38,-1,-1,-1,-1,-1,40,42,44,-1,-1,-1,-1,46,-1,-1,48,-1,50,52,-1,54,56,-1,-1,58,60,62,-1,64,-1,66,68,-1,70,72,-1,74,76,-1,78,-1,-1,-1,-1,-1,-1,80,-1,-1,-1,-1,-1,-1,-1,-1,-1,-1,-1,-1],"split_conditions":[5.113636E-1,1.03913635E-1,6.882591E-1,5E-1,2.979592E-1,5.747051E-1,7.4596775E-1,7.846154E-2,5E-1,5E-1,5E-1,5.628882E-1,-1.0354849E-1,7.376344E-1,1.8541667E0,5.8757063E-2,-8.677199E-2,5E-1,5.3401913E-2,1.590909E-1,1.7894736E-1,1.5E0,7.630495E-2,-7.926089E-2,6.705423E-2,-0E0,6.661891E-2,9.1428566E-1,1.9375E0,5E-1,6.917822E-2,-5.9478164E-2,2.972064E-2,5.747206E-2,2.1637428E-1,1.1160719E-2,9.00593E-2,4.2481202E-1,7.491808E-2,8.452381E-1,1.3666667E0,6.558344E-2,5E-1,5E-1,-7.063846E-2,-3.882754E-2,2.4228302E-1,3.217647E-1,5E-1,-5.0736178E-2,8.6190474E-1,-1.0257623E-1,1.4352942E0,2.175E0,3.4627628E-2,5E-1,3.5E0,6.2425133E-2,5E-1,3.0677938E-1,-1.11284554E-1,5E-1,4.8770446E-2,8.274229E-2,-1.0047029E-2,3.935326E-2,-8.3661065E-2,-1.0106466E-1,2.5357141E0,6.9306693E-3,7.4938886E-2,-3.9342757E-2,3.2513276E-2,-4.3797597E-2,5.2151352E-2,-7.083798E-2,2.2593252E-2,-4.8940673E-2,4.1076805E-2,6.0768273E-2,-1.7380806E-2],"split_indices":[226,226,226,7,226,226,226,226,205,7,243,226,0,226,226,226,0,204,0,226,226,209,0,0,0,0,0,226,226,211,0,0,0,0,226,0,0,226,0,226,226,0,211,205,0,0,226,226,5,0,226,0,226,226,0,204,205,0,5,226,0,245,0,0,0,0,0,0,226,0,0,0,0,0,0,0,0,0,0,0,0],"split_type":[0,0,0,0,0,0,0,0,0,0,0,0,0,0,0,0,0,0,0,0,0,0,0,0,0,0,0,0,0,0,0,0,0,0,0,0,0,0,0,0,0,0,0,0,0,0,0,0,0,0,0,0,0,0,0,0,0,0,0,0,0,0,0,0,0,0,0,0,0,0,0,0,0,0,0,0,0,0,0,0,0],"sum_hessian":[3.0159863E2,2.6167014E2,3.9928482E1,2.1529582E2,4.6374332E1,6.2862735E0,3.364221E1,1.9217259E2,2.3123228E1,2.80792E1,1.8295132E1,2.7078118E0,3.5784616E0,3.1487806E0,3.0493427E1,1.9037874E2,1.7938466E0,2.1533148E1,1.5900803E0,2.0577198E1,7.5020013E0,1.5901338E1,2.393793E0,1.5467361E0,1.1610758E0,1.9910766E0,1.1577039E0,1.4287162E1,1.6206266E1,1.8664218E2,3.7365646E0,2.0362608E1,1.1705397E0,9.439441E0,1.1137757E1,1.5450053E0,5.956996E0,1.4690774E1,1.2105635E0,7.362544E0,6.924618E0,1.1494147E0,1.5056851E1,1.8551494E2,1.1272342E0,5.850254E0,5.2875032E0,5.4302087E0,9.260566E0,3.384552E0,3.977992E0,3.7186189E0,3.205999E0,1.3710686E1,1.3461657E0,1.719673E2,1.354764E1,2.1957102E0,3.0917933E0,2.269654E0,3.1605546E0,5.194324E0,4.0662417E0,1.2392632E0,2.738729E0,1.6130447E0,1.5929542E0,2.2520297E0,1.1458656E1,1.6544104E2,6.5262666E0,9.948765E0,3.598875E0,2.0829368E0,1.0088567E0,1.1619339E0,1.1077201E0,3.935637E0,1.2586869E0,2.5234866E0,8.935169E0],"tree_param":{"num_deleted":"0","num_feature":"261","num_nodes":"81","size_leaf_vector":"0"}},{"base_weights":[1.3886086E-2,2.2799306E-2,-9.1766196E-1,3.499316E-2,-3.3382452E-1,4.5248922E-2,-1.8191853E-1,-7.045663E-1,4.339574E-1,3.3302754E-2,3.575579E-1,-8.654923E-1,5.703987E-2,5.6836274E-2,-1.1916307E-1,-0E0,5.2028596E-1,-1.3382837E-1,3.8247752E-1,6.571363E-2,-7.1738094E-1,-2.1762377E-1,2.0677358E-1,2.8549573E-1,-7.2684115E-1,6.745192E-1,-5.252573E-3,5.3095233E-2,5.685919E-1,4.6416226E-1,-1.6700692E-1,7.46004E-2,-2.5854963E-1,7.256776E-2,7.757313E-1],